// Auto-generated by export_fnn_to_c.py
#pragma once

#define NUM_LAYERS 4
static const int LAYER_IN[NUM_LAYERS] = {60, 128, 64, 32};
static const int LAYER_OUT[NUM_LAYERS] = {128, 64, 32, 1};
static const char *LAYER_ACT[NUM_LAYERS] = {"relu", "relu", "relu", "linear"};

// Layer 0 : dense_3  in=60 out=128 act=relu
static const float W0[7680] = { 1.538466215e-01f, 9.938635677e-02f, -1.447784156e-01f, -1.564929038e-01f, -2.393312939e-02f, 1.702760011e-01f, -8.430518210e-02f, 5.549390614e-02f, 1.309656054e-01f, -1.473479718e-02f, -1.586528271e-01f, -1.852240413e-03f, 1.775722206e-01f, -1.726136655e-01f, 2.555407211e-02f, -7.015996426e-02f, 1.034368724e-01f, -1.295341551e-01f, 1.266110539e-01f, 6.721817888e-03f, -1.250754446e-01f, -1.212964430e-01f, -8.580423146e-02f, -1.591618061e-01f, 1.608064957e-02f, 1.358398348e-01f, -1.746478826e-01f, -2.254907414e-02f, -1.739146262e-01f, -1.044081673e-01f, 7.687889785e-02f, 1.667692959e-01f, -1.124244407e-01f, -9.746679664e-02f, -4.564654827e-02f, 1.292639226e-01f, 1.473961398e-02f, 1.513173133e-01f, 1.284662783e-01f, -1.163513213e-01f, -1.210536622e-02f, -7.739961147e-02f, 2.718102373e-02f, 5.825696886e-02f, -7.585760951e-02f, 1.730674803e-01f, -1.195978932e-02f, -1.344698668e-01f, 1.066252738e-01f, -1.191110387e-01f, 1.720421761e-01f, 7.883007824e-02f, -7.392889261e-02f, 1.145736203e-01f, -6.831007451e-02f, -9.100940824e-02f, -1.423886567e-01f, -1.086379886e-01f, -9.466088563e-02f, 1.241132841e-01f, 5.216844380e-02f, -8.067062497e-02f, 1.333895773e-01f, -8.863706887e-02f, -9.177558869e-02f, 5.755614117e-02f, -5.358068272e-02f, -1.367970277e-02f, -1.794934869e-01f, 1.527275592e-01f, 7.372153923e-03f, -1.685994118e-02f, 5.711890757e-02f, 1.696723104e-01f, -1.014066711e-01f, 1.550020874e-01f, -1.358370334e-01f, -9.767227620e-02f, 1.137402430e-01f, -2.282038890e-02f, -6.237822026e-02f, -1.785660833e-01f, -1.169428676e-01f, -1.742424071e-01f, 5.984114110e-02f, -8.087160438e-02f, 1.263809651e-01f, -1.714090556e-01f, -1.484495848e-01f, 8.414829150e-03f, -1.409037113e-01f, 7.341027260e-02f, 1.777870022e-02f, 8.722284436e-02f, 1.654119641e-01f, 1.744051427e-01f, -1.065553725e-01f, -1.015897766e-01f, 1.124478132e-01f, -6.077319756e-02f, 9.511490166e-02f, 1.179411858e-01f, 1.697641015e-01f, -1.078647673e-01f, 1.379942447e-01f, -9.088423103e-02f, -1.483048946e-01f, 1.651330143e-01f, 1.470938977e-02f, -8.106350899e-02f, -1.426086128e-01f, -1.637236029e-01f, -9.469398856e-02f, -9.064468741e-02f, 4.676291719e-02f, 4.384862259e-02f, -1.121200025e-01f, -5.290633067e-02f, -1.587175280e-01f, 7.062990218e-02f, 7.022035867e-02f, -2.363261022e-02f, 2.261861600e-02f, 2.450803854e-02f, -8.133503050e-02f, -1.078261659e-01f, -7.314071059e-02f, -1.500092447e-01f, -1.162422597e-01f, 1.259216964e-01f, -1.501903534e-01f, -1.328837574e-01f, -1.349108815e-01f, 1.470075548e-02f, 3.945372626e-02f, -7.449525595e-02f, 1.242821664e-01f, 4.240989313e-02f, 2.566060051e-03f, 1.640603244e-01f, -1.467299312e-01f, -8.801312000e-02f, -1.239987612e-01f, 1.766254306e-01f, 1.380347610e-01f, -5.029440299e-02f, 5.953049287e-03f, 4.127019271e-02f, -1.132418811e-01f, -1.200886518e-01f, -1.708925329e-02f, -8.766802400e-02f, -7.315417379e-02f, 4.887016863e-02f, 1.672943532e-01f, 1.553390920e-01f, -9.133778512e-02f, -1.096148863e-01f, -4.727315158e-02f, -1.673157513e-01f, -5.295784026e-02f, 1.612636894e-01f, -6.283859164e-02f, -9.180728346e-02f, 5.358846858e-02f, -9.411001951e-02f, -2.712075040e-02f, -1.624014378e-01f, 2.377664298e-02f, 9.698801488e-02f, 1.668775678e-01f, 4.753968120e-02f, -2.973612025e-02f, 3.042519093e-03f, -1.158857252e-02f, -5.611608177e-02f, 7.022323459e-02f, 1.155932620e-01f, -1.085417569e-01f, 3.424659371e-03f, 1.166375652e-01f, 1.329274327e-01f, 7.359561324e-02f, 1.721421778e-01f, 1.626203805e-01f, -4.075496644e-02f, -2.435219660e-02f, 1.635887325e-01f, -8.397921920e-02f, 1.164667867e-02f, -8.846115321e-02f, -7.331454009e-02f, 6.980674714e-02f, 1.184862852e-02f, 9.173804522e-02f, 3.012530133e-02f, 5.191171542e-02f, -7.271353900e-02f, -1.046765074e-01f, -3.972830996e-02f, -1.629094332e-01f, -6.537876278e-02f, -1.416160762e-01f, -1.612234861e-01f, -1.630460173e-01f, -1.289146692e-01f, 2.239523828e-02f, -8.376224898e-03f, 1.631217450e-01f, -2.629138343e-02f, -2.033821307e-02f, -1.101222560e-01f, -7.360774558e-03f, -1.556681842e-01f, -1.181247979e-01f, -8.656245470e-02f, -1.531478465e-01f, -1.681128889e-02f, 1.675774008e-01f, -7.727760822e-02f, -1.385871619e-01f, -1.492842799e-03f, 7.387156785e-02f, -4.665789008e-02f, 7.423543371e-03f, -1.608848423e-01f, -1.827790588e-02f, -2.998344973e-02f, -6.678899378e-02f, -7.986360788e-02f, 8.433604985e-02f, 2.752291411e-02f, -1.504404992e-01f, 1.737070829e-01f, 6.575974077e-02f, -7.451709826e-03f, 1.394100934e-01f, 4.573311284e-02f, 1.092330068e-01f, -5.153164640e-02f, 1.451547444e-01f, 2.796313725e-02f, -1.312823445e-01f, 1.930999383e-02f, -1.911119521e-01f, 1.606901735e-01f, 1.427524090e-01f, -6.603107601e-02f, -9.911227226e-02f, 4.453265574e-03f, -2.003051154e-02f, 1.156247035e-01f, -7.603026181e-02f, -3.787102178e-02f, 1.062811017e-01f, 1.006395444e-01f, -8.075250685e-02f, 2.301033214e-02f, 4.901858419e-02f, 2.747003362e-02f, 9.598242491e-02f, -1.254609041e-02f, 8.120816946e-02f, 1.438054293e-01f, -1.670080610e-02f, -1.925559193e-01f, -6.361754239e-02f, 9.801388532e-02f, 6.806809455e-02f, 7.854390889e-02f, 1.184086576e-01f, -1.000721082e-01f, -1.585174352e-01f, -1.852847785e-01f, 1.472656727e-01f, -1.264812052e-01f, 6.704030186e-02f, -1.697072238e-01f, -2.717438526e-02f, 1.267541498e-01f, -3.077985719e-02f, -1.283558011e-01f, -1.574864239e-01f, -9.962725639e-02f, 1.185633540e-01f, -1.564667523e-01f, 6.438557990e-03f, -1.341301352e-01f, -1.136721149e-01f, 1.038041711e-01f, 1.631840765e-01f, -5.814068019e-02f, 1.317096055e-01f, -9.702304006e-02f, 1.107487231e-01f, -1.020654961e-01f, -5.311242864e-02f, -1.376927495e-01f, -6.963253021e-02f, -5.222262442e-02f, -1.307096630e-01f, -6.185304746e-02f, 3.214714676e-02f, 1.735621095e-01f, 1.616696566e-01f, -2.285954170e-02f, 5.612373725e-02f, 1.771683693e-01f, 3.345720237e-03f, 1.065779626e-01f, 9.909964353e-02f, 1.760397553e-01f, 1.759693213e-02f, -4.129499197e-02f, -1.364510655e-01f, -8.852455020e-02f, -6.739926990e-03f, -2.005789196e-03f, 8.525910974e-02f, -1.413642168e-01f, -6.293579936e-02f, -1.609298885e-01f, -2.747431211e-02f, -1.258869171e-01f, 5.499983206e-02f, 4.991052672e-02f, -1.693599671e-01f, -7.149492949e-02f, 1.657889634e-01f, -9.271553904e-02f, 3.794630244e-02f, 9.913488477e-02f, -1.121500805e-01f, -1.751350984e-02f, -7.607670873e-02f, -1.229257807e-01f, -1.413366646e-01f, -1.541352272e-01f, -5.791818723e-02f, -1.131075993e-01f, 3.736747056e-02f, 3.777377307e-02f, -8.022016287e-02f, -1.306057125e-01f, 1.457781345e-01f, -1.092387214e-01f, 8.966804296e-02f, 1.144400612e-02f, -7.050596923e-02f, -2.981275134e-02f, -8.094189316e-02f, -1.452783942e-01f, -3.146178275e-02f, 4.109539092e-02f, 5.717399344e-02f, -2.408910729e-02f, 1.307709664e-01f, 1.558254361e-01f, 1.153111011e-01f, -1.363623738e-01f, -1.745556295e-01f, 2.626386285e-02f, -6.253692508e-02f, 5.968019366e-03f, -3.775678575e-02f, 1.594397724e-01f, -8.671706170e-02f, -5.917983502e-02f, 7.614326477e-02f, 1.719056070e-02f, -7.877513766e-03f, 5.000908673e-02f, 9.933030605e-02f, 1.708611846e-02f, -1.549464464e-02f, -2.670155466e-02f, -1.410619915e-02f, 1.377823949e-02f, -7.503988594e-02f, -1.518350691e-01f, -1.378657520e-01f, 7.461392879e-02f, 9.480449557e-02f, -1.313913018e-01f, 3.595608473e-02f, 5.474413931e-02f, -8.327883482e-02f, -1.297457665e-01f, -1.667797565e-01f, -7.293060422e-02f, -8.498510718e-02f, 4.684068263e-02f, -1.368348002e-01f, -1.572022289e-01f, 3.774046898e-02f, 1.617114246e-02f, -1.701568067e-02f, 1.147010326e-01f, 1.532001197e-01f, -5.518147349e-02f, 1.732540429e-01f, 1.345235407e-01f, -3.314636648e-02f, -8.440699428e-02f, -6.981808692e-02f, 7.405441999e-02f, -1.586156338e-01f, -4.544393718e-02f, 8.330702782e-02f, 1.550607383e-01f, 1.690420508e-02f, -6.357056648e-02f, -6.276019663e-02f, -9.653317928e-02f, -6.995161623e-02f, -4.641249776e-02f, 6.616817415e-02f, 1.165007651e-01f, -2.334983647e-02f, -9.651494771e-02f, -1.776144654e-01f, -1.052375045e-02f, -1.168278605e-02f, -9.311843663e-02f, -6.142239552e-03f, -1.278963964e-02f, 8.787794411e-02f, -7.540443540e-02f, -5.820544437e-02f, -3.174389526e-02f, -1.173573732e-01f, -4.512597620e-02f, -4.375074431e-02f, 1.599041000e-02f, 7.682877779e-02f, -3.299906477e-02f, -7.391785830e-02f, -1.483551711e-01f, -5.238222890e-03f, 1.167126670e-01f, -7.800756395e-02f, 9.245081991e-02f, 1.219674796e-01f, 6.407862157e-02f, -2.657102188e-03f, -5.919320136e-02f, -1.725222915e-01f, -1.049683616e-01f, 9.450525790e-02f, -1.255093664e-01f, 5.913927034e-02f, -5.990229547e-02f, -8.305448294e-02f, 9.558045864e-02f, 4.450153559e-02f, 1.975495741e-02f, 1.324977130e-01f, 5.713617802e-02f, -7.985092700e-02f, 1.568119675e-01f, 1.441944987e-01f, 9.945113957e-02f, 7.244026661e-02f, 1.445749700e-01f, 5.392594263e-02f, -1.177228615e-02f, -1.367704105e-02f, -1.365516186e-01f, -9.568327665e-02f, 9.840115905e-03f, -6.023817882e-02f, 4.289902747e-02f, -8.189806249e-04f, -1.650446653e-01f, -3.902049363e-02f, 1.286403090e-02f, 1.649130136e-01f, -1.296411306e-01f, 7.998292148e-02f, -1.347807795e-02f, 3.778555989e-02f, -9.330758825e-03f, 1.038484126e-01f, 1.024966314e-02f, -1.824605316e-01f, 7.945606485e-03f, 6.009705737e-02f, 1.639976054e-01f, 3.366695344e-02f, 2.541141026e-02f, -1.737345308e-01f, -6.158968061e-02f, 9.587285668e-02f, -1.670690626e-02f, -1.518285573e-01f, -1.192264631e-02f, 1.218613684e-01f, -1.196287721e-01f, 5.275787786e-02f, 1.158754677e-01f, 1.023014337e-01f, -4.960013926e-02f, -2.538776398e-02f, -1.424425691e-01f, -1.024622172e-01f, -1.524876654e-01f, 5.888301134e-02f, 7.769142091e-02f, 9.813013673e-02f, 9.171590954e-02f, -8.780534565e-02f, -1.621616185e-01f, 1.179333180e-01f, -6.504284590e-02f, 1.192609891e-01f, 5.771970376e-02f, -7.240946591e-02f, 2.267613634e-02f, -4.205027968e-02f, -7.322750241e-02f, 8.786384761e-02f, 1.082173437e-01f, -1.385043655e-02f, -9.072887897e-02f, -6.570833921e-02f, 1.644205153e-01f, -1.597882956e-01f, 1.189149320e-01f, -1.680204086e-02f, 7.053053379e-02f, -1.024904251e-01f, 1.354989111e-01f, -1.786825061e-01f, 3.530468419e-02f, -1.049734205e-01f, -1.762944609e-01f, -3.215816244e-02f, -1.665489078e-01f, 9.504723549e-02f, 1.670347154e-01f, 2.243999392e-02f, 1.676368117e-01f, -6.064204872e-02f, 6.412582099e-02f, 1.594135463e-01f, 1.480631083e-01f, -1.355311275e-02f, -5.549966916e-02f, -1.513123512e-01f, -5.111974198e-03f, -6.072182953e-02f, 8.840992302e-02f, -6.881086528e-02f, -4.276011512e-02f, 8.024487644e-02f, -1.667161733e-01f, 1.159273013e-01f, -1.618009061e-01f, -3.169132769e-02f, -1.676885486e-01f, 1.256286800e-01f, 1.586888731e-01f, 1.443933398e-01f, 1.060422137e-01f, 7.331395149e-02f, -1.831142232e-02f, -5.874899030e-02f, 5.943614617e-02f, -5.412380560e-04f, 2.993818838e-03f, 1.565272063e-01f, -1.651389301e-01f, -1.258531660e-01f, -8.645148575e-02f, -1.233666912e-01f, 1.480480470e-02f, -1.576520056e-01f, 1.520168930e-01f, 7.639802247e-02f, -1.220217496e-01f, -1.227061450e-01f, 4.734508321e-02f, 7.751222700e-02f, -4.421949387e-02f, 3.149739653e-02f, 6.199877337e-02f, -4.455164820e-02f, 9.204068035e-02f, -7.169549912e-02f, -3.327731416e-02f, -5.823098123e-02f, 1.324000536e-03f, 1.681622863e-01f, 1.844591349e-01f, 9.081484377e-02f, 1.062550992e-01f, -5.941545218e-02f, 7.281913608e-02f, -6.239254028e-02f, 9.113200754e-02f, 8.299852908e-02f, -5.189234391e-02f, -4.348691180e-02f, -8.080922812e-02f, -2.374917269e-02f, -1.005198136e-01f, 1.633225083e-01f, -1.170472614e-02f, 1.534791589e-01f, -5.172618479e-02f, -1.736967079e-02f, -1.746365279e-01f, -1.536431909e-01f, -1.465938240e-01f, -1.760471761e-01f, 1.463768184e-01f, -2.284030616e-02f, -9.218016639e-03f, -1.138611510e-01f, -9.518709779e-02f, -2.496719733e-02f, 1.316884160e-01f, 1.439369023e-01f, 1.346797943e-01f, -9.881642461e-02f, 8.709396422e-02f, -1.046319455e-01f, -2.346471883e-02f, -3.037205199e-03f, -1.486725658e-01f, 1.516270787e-01f, -1.561488211e-01f, 7.776651531e-02f, 4.320770502e-02f, -9.786745906e-02f, -1.644076258e-01f, -2.432953799e-03f, -2.009893395e-02f, 6.827367842e-02f, 3.102689423e-02f, -9.733928740e-02f, -1.424888074e-01f, 1.631121933e-01f, 1.935164444e-02f, -1.142473966e-01f, -9.018265456e-02f, 7.967557013e-02f, 3.439641371e-02f, 1.435417868e-02f, -5.465390161e-02f, 1.680781841e-01f, 2.838442288e-02f, 8.901324868e-02f, 1.487570535e-02f, 5.408334360e-02f, -2.787158825e-02f, 1.561985817e-02f, 1.343277395e-01f, -7.733527571e-02f, -1.720046103e-01f, -1.539663374e-01f, -4.748739302e-02f, 1.268130988e-01f, 1.213310957e-01f, 1.488208771e-01f, 1.316530854e-01f, 9.160091728e-02f, 1.483492255e-01f, -3.725082427e-02f, 1.185903996e-01f, 1.140282527e-01f, -2.108833194e-02f, -5.056818575e-02f, -3.326332662e-04f, -1.662160903e-01f, -1.426816136e-01f, 5.919039249e-02f, -3.910561278e-02f, 1.452868283e-01f, 1.118483990e-01f, 1.578793079e-01f, -6.468816102e-02f, -8.740213513e-02f, 1.702868342e-01f, -7.497241348e-02f, 4.628297687e-02f, 5.636077747e-02f, 1.210024208e-01f, -4.749202728e-02f, -1.402992308e-01f, 1.296856701e-01f, 9.949059039e-02f, -9.109280258e-02f, -1.068909690e-01f, 2.323628590e-02f, 1.402598917e-01f, 1.333066225e-01f, -5.314088985e-02f, -1.704107225e-01f, 8.116463572e-02f, -1.053792164e-01f, 9.363196045e-02f, -9.012724459e-02f, 3.438644111e-02f, -1.759827137e-01f, -9.723658115e-02f, -1.703436971e-01f, 8.434948325e-02f, 5.978841707e-02f, 4.617847502e-02f, -7.927141339e-02f, -1.029691175e-01f, 8.097495884e-02f, -1.017708555e-01f, -1.502805110e-02f, -1.131005064e-01f, -9.899479896e-02f, 2.113799378e-02f, -1.564315408e-01f, 6.303493679e-02f, 1.352208406e-01f, -1.718735099e-01f, -6.410901994e-02f, -2.781554125e-02f, 2.035923675e-02f, -5.704904720e-02f, -7.421357930e-02f, 7.151870430e-02f, 2.815725841e-02f, -7.391312718e-02f, 1.695338637e-01f, 3.626880422e-02f, 1.216544583e-01f, 1.397409588e-01f, 1.180245504e-01f, 1.534004360e-01f, 1.061851066e-02f, 1.625244319e-01f, 3.000728786e-02f, 5.858504679e-03f, 1.193983406e-01f, -4.095479101e-02f, 1.748989522e-01f, 9.229911864e-02f, -1.410668790e-01f, 5.330068618e-02f, -1.110964641e-01f, 1.213415116e-01f, 1.320434511e-01f, -2.229832299e-02f, 3.432678431e-02f, 1.320950538e-01f, -1.186745912e-01f, -1.319957781e-03f, -1.381465141e-02f, -2.366802189e-03f, -7.044439018e-02f, 1.579041481e-01f, -1.782321185e-01f, -1.150084361e-01f, -1.273444444e-01f, -1.188902482e-01f, 9.440433234e-02f, 1.378483623e-01f, 8.095091907e-04f, -1.392021775e-01f, 9.484023601e-02f, -2.622988634e-02f, -4.300289601e-02f, 1.887493767e-02f, 1.223955676e-02f, 1.105050370e-01f, -1.067429781e-01f, -1.080225781e-01f, -1.610645950e-01f, 1.236938238e-01f, -1.370693743e-01f, -1.259372830e-01f, 3.446825221e-02f, 1.219339594e-01f, 7.795939455e-04f, 9.204759449e-02f, 1.721252352e-01f, 3.905677795e-02f, -1.701451838e-01f, -7.288581133e-02f, 8.128910512e-02f, 1.402507629e-02f, 3.913080692e-02f, 1.276721656e-01f, 5.361585319e-02f, -5.265637860e-02f, 4.010622948e-02f, 5.186308175e-03f, 1.494403780e-01f, 1.177892312e-01f, -8.742361516e-02f, 5.405757576e-02f, 1.977242157e-02f, -1.274076104e-01f, 1.092771217e-01f, 1.542823911e-01f, 4.594029393e-03f, 7.554198056e-02f, 1.382568479e-01f, 1.462737024e-01f, 1.312033273e-02f, -1.261553466e-01f, -8.225420117e-02f, 1.503826380e-01f, -1.380274892e-01f, 1.008479595e-01f, 1.510727406e-01f, 3.289724141e-02f, -2.438934287e-03f, 1.081053540e-01f, 1.708506793e-02f, 1.565649956e-01f, 1.602306589e-02f, 1.543464363e-01f, -5.109503865e-02f, 1.159481145e-02f, 1.625889540e-01f, 8.513572067e-02f, -9.553208016e-03f, 6.322920788e-03f, -6.829587370e-02f, 1.517377943e-01f, 7.057337463e-02f, 1.711608917e-01f, -9.497043490e-02f, -2.809514292e-02f, 7.070188876e-03f, 4.982059821e-03f, -9.788184613e-02f, 1.587981135e-01f, 7.362192869e-02f, -9.266068786e-02f, -9.110029042e-02f, 5.313067511e-02f, 1.624760181e-01f, 3.323356807e-02f, 6.475128978e-02f, -1.574017406e-01f, -7.073175907e-02f, 2.612962388e-02f, 8.050849661e-03f, 9.222188592e-02f, -1.740340889e-01f, 4.740032554e-02f, 1.121726185e-01f, 7.658279501e-04f, -1.570925564e-01f, -7.775413338e-03f, -4.985071719e-02f, 1.358785480e-01f, 1.111050919e-01f, 7.702021394e-03f, 4.139962792e-02f, -3.489354253e-02f, -1.018043160e-01f, 1.131284684e-01f, -6.151239574e-02f, 8.243866265e-02f, 7.537283748e-02f, 1.685542017e-01f, 1.192292124e-01f, 9.300131351e-02f, -1.017643139e-01f, -3.486622154e-05f, -1.696637422e-01f, -2.478976361e-02f, -2.281926945e-02f, -5.071541667e-02f, 2.748947032e-02f, 1.709759794e-02f, 2.772192843e-02f, -1.035875678e-01f, -1.789608002e-01f, -8.746220730e-03f, -1.039202362e-01f, -1.800747961e-02f, -1.496358588e-02f, -3.072986007e-02f, 1.108569279e-01f, -1.329785138e-01f, -1.464936137e-01f, -4.675910249e-02f, 3.204955533e-02f, 1.495324913e-02f, 2.928919904e-02f, -8.335480466e-03f, -1.661590040e-01f, 1.681422144e-01f, 1.489902567e-02f, 3.640767187e-02f, -4.230343178e-02f, 4.159896076e-02f, -1.356226504e-01f, 4.381771013e-02f, 5.963086709e-02f, -9.151397645e-02f, -7.599955052e-02f, -9.449674189e-02f, -1.776546091e-01f, -5.408219993e-02f, 9.114533663e-02f, -1.713622212e-01f, -5.661682785e-02f, -6.936929375e-02f, -1.559620500e-01f, -1.695573516e-02f, -9.129520506e-02f, 1.615958065e-01f, 1.135784201e-02f, -1.578607708e-01f, -1.116891801e-01f, -6.354155019e-03f, 1.754360199e-01f, -8.840774000e-02f, 1.160176545e-01f, 1.258630902e-01f, -1.168617979e-01f, -6.375016179e-03f, 1.596310735e-01f, 8.862124383e-02f, -1.677898318e-01f, 9.905361570e-03f, 1.467038095e-01f, -6.176050752e-02f, 1.407934725e-01f, 1.254877150e-01f, 3.139517084e-02f, 3.421267867e-02f, -9.337817878e-02f, -1.738920361e-01f, -3.519078344e-02f, 1.346391737e-01f, -1.729586124e-01f, 5.604883283e-02f, 1.281278729e-01f, 1.121263653e-01f, 2.210788988e-02f, -8.296528459e-02f, -2.000142448e-02f, 7.347928360e-03f, -2.760508284e-02f, 1.354044080e-01f, 4.822657630e-02f, -2.966190316e-02f, -8.898712695e-02f, -1.210678220e-01f, 1.043100357e-01f, 1.238885149e-02f, -3.946463391e-02f, -1.343000382e-01f, -7.004364580e-02f, -1.412731558e-01f, 1.109500602e-01f, 8.019316196e-02f, 3.569482267e-02f, 2.074421197e-02f, 3.536327556e-02f, -1.933995634e-02f, 1.266067326e-01f, 2.310829423e-02f, 1.309690922e-01f, 6.169947982e-02f, -1.458666772e-01f, -3.598359972e-02f, -1.338009089e-01f, -4.646853358e-02f, 2.037785202e-02f, 5.980475619e-02f, 5.359908566e-02f, -1.674133539e-01f, 1.763112396e-01f, -1.939230412e-02f, 1.388315260e-01f, 9.719841182e-02f, 1.730851680e-01f, -1.776139140e-01f, 2.324844152e-02f, -1.134853810e-01f, 2.674106136e-02f, -1.002383083e-01f, -5.697263405e-02f, -1.761050224e-01f, -8.623717353e-03f, 7.406258583e-02f, -1.492740214e-01f, 1.432956010e-01f, 1.229403690e-01f, -3.625351191e-02f, 4.635810107e-02f, 1.298791319e-01f, -1.172608063e-01f, 3.168936446e-02f, -2.490058169e-02f, -1.571220309e-01f, -1.068171673e-02f, 5.480521941e-04f, 1.035480201e-01f, 3.415621817e-02f, -6.242438219e-03f, -9.553054720e-02f, -4.179050773e-02f, 9.753338993e-02f, 8.105308563e-02f, -1.229109615e-01f, -1.498984843e-01f, -1.357894242e-01f, -1.260665804e-01f, 5.676158518e-02f, 8.755234629e-02f, -1.111872867e-01f, -2.232018672e-02f, 1.711010933e-01f, 2.248374373e-02f, -9.799960256e-02f, -1.144962236e-01f, 2.356369514e-03f, -8.419094980e-02f, 2.632065676e-02f, 2.840043791e-02f, -3.072840720e-02f, -7.424015552e-02f, 1.107485145e-01f, 1.261759996e-01f, 1.697871983e-01f, -1.398546845e-01f, 1.874516904e-02f, -1.334053427e-01f, -1.819238812e-01f, 1.073053926e-01f, 1.311987787e-01f, -1.491015702e-01f, -8.346518502e-03f, 1.411948353e-01f, 8.983659744e-02f, -1.371727586e-01f, -3.964247182e-02f, 5.434064567e-02f, 1.412097644e-02f, -9.216110408e-02f, -1.050684825e-01f, 1.651488096e-01f, -5.289171264e-02f, 4.660550877e-02f, 1.382938474e-01f, -3.498098627e-02f, -1.736415178e-01f, 1.305390745e-01f, -1.272294372e-01f, 8.649328351e-02f, -1.197985932e-01f, -1.815739125e-01f, 1.597422361e-01f, 1.399725527e-01f, -6.598153710e-02f, 1.525475234e-01f, 5.124383606e-03f, -1.704845130e-01f, -2.019899338e-02f, -1.468207836e-01f, 3.322368860e-02f, -1.627419889e-01f, 1.549694836e-01f, 4.694962129e-02f, -9.742327780e-02f, 1.317415982e-01f, -1.057424843e-01f, 1.600247622e-01f, -9.403888136e-02f, 9.224808216e-02f, 5.581837147e-02f, 1.490236819e-01f, 9.332421422e-02f, 1.350750625e-01f, -1.059339195e-01f, 1.406399906e-02f, -1.630289853e-01f, 1.811121404e-02f, 6.421947479e-02f, 3.600284457e-03f, 1.134848893e-01f, -7.872015238e-03f, -5.366861820e-02f, 5.999246240e-02f, -5.489725620e-02f, -6.605041027e-02f, -1.007254645e-01f, 4.102425277e-02f, -4.033620656e-02f, 5.564352870e-02f, 1.064888835e-01f, -1.134708673e-01f, -7.025547326e-02f, -5.289624631e-02f, 1.601783633e-01f, 6.747254729e-02f, -7.274886221e-02f, -9.855373949e-02f, -1.725799143e-01f, 1.478598416e-01f, 6.136396527e-02f, -4.432953894e-02f, -4.165667295e-02f, -5.583868176e-02f, -3.114774823e-03f, 1.231081486e-01f, -7.643143833e-02f, 9.652513266e-02f, 3.404915333e-03f, -1.137983650e-01f, 1.212674379e-02f, -5.664752424e-02f, 3.611154854e-02f, -1.584299356e-01f, 1.202625930e-01f, 8.857679367e-02f, 1.424414814e-01f, -8.990053087e-02f, -1.444745511e-01f, -7.337548584e-02f, -1.510065943e-01f, 1.476728916e-01f, 1.065512300e-01f, -9.674158692e-02f, -1.075861081e-01f, 1.325677037e-01f, -1.741679013e-01f, -1.288884282e-01f, -1.630321741e-01f, 3.829570115e-02f, -1.254355013e-01f, -1.480031610e-01f, 3.637178242e-02f, 2.601090074e-02f, -2.298519015e-03f, -1.717336029e-01f, -1.649901718e-01f, -1.434214264e-01f, -5.506594852e-02f, 3.476716578e-02f, -7.879737020e-02f, 1.535583138e-01f, -1.018766984e-01f, 5.900096521e-02f, -1.708714813e-01f, -1.507584900e-01f, 8.559427410e-02f, -1.606628746e-01f, 1.470242292e-01f, -1.126339193e-02f, 2.595786005e-02f, 1.703329384e-01f, 3.197580576e-02f, 9.115952998e-02f, -1.507766396e-01f, -1.963655092e-02f, -7.018634677e-02f, 1.433900837e-02f, -5.554960668e-02f, -4.809041321e-02f, 9.502075613e-02f, -1.412953138e-01f, 3.128474951e-02f, 1.133626848e-01f, 1.518048942e-01f, 1.004744619e-01f, -1.306110173e-01f, 1.442868710e-01f, -7.366439700e-02f, 7.281482220e-02f, -4.426620901e-02f, -1.666454226e-01f, 1.539572626e-01f, -1.339814961e-01f, 4.202662036e-03f, 1.335613430e-01f, 6.465151161e-02f, 9.130750783e-03f, 3.122871183e-02f, 1.307735890e-01f, 1.318577230e-01f, 1.245774608e-02f, -1.563009173e-01f, 1.264022738e-01f, -9.754116833e-02f, -1.741309762e-01f, -6.370680779e-02f, 2.439594362e-03f, -2.856378630e-02f, -7.575445622e-02f, 1.892656647e-02f, -1.447441280e-01f, -1.766398549e-01f, -1.811668873e-01f, -1.831736714e-01f, 1.237704903e-01f, -6.768210977e-02f, -1.821279824e-01f, -1.503025740e-01f, 1.367646307e-01f, 7.677080482e-02f, 1.639558077e-01f, 8.789337426e-02f, 6.014416367e-02f, 1.177151799e-01f, -6.293558329e-02f, -6.172495428e-03f, 1.122803017e-01f, -1.535231471e-01f, 1.650095433e-01f, -6.558166444e-02f, 8.869002014e-02f, 6.546965986e-02f, -1.397848725e-01f, -7.355476916e-02f, 1.090654731e-01f, 1.432199627e-01f, 1.364798695e-01f, -1.280049607e-02f, 7.273305953e-02f, -1.639265716e-01f, -4.125021771e-02f, -1.444371939e-01f, 1.662178040e-01f, 2.537690662e-02f, 9.346386045e-02f, -1.473881602e-01f, -9.519434534e-03f, -1.517430544e-01f, -7.225544006e-02f, -2.731659822e-02f, 1.081177518e-01f, -1.032679975e-01f, -1.802830696e-01f, 9.677013010e-02f, 7.935633510e-02f, 1.605526656e-01f, -1.089586392e-01f, -6.178535521e-02f, -1.078206003e-01f, -8.012941480e-02f, -1.685330421e-01f, 1.286442578e-01f, 6.890956312e-02f, -8.522606641e-02f, -8.925799280e-02f, -1.340309978e-01f, 1.608783752e-01f, 4.526610672e-02f, 5.710322782e-02f, -9.774095565e-02f, -1.710892618e-01f, -2.910467796e-02f, 9.458779544e-02f, 8.566995710e-02f, -5.994730443e-02f, -1.033076793e-01f, 1.112436224e-02f, 3.150126711e-02f, 3.011778370e-02f, -3.651927412e-02f, -1.273620725e-01f, -2.614182979e-02f, -3.576535359e-02f, -5.835814402e-02f, 1.109610349e-01f, -6.205592304e-02f, 1.024119258e-01f, -5.020809174e-02f, 3.030089848e-02f, -2.456240356e-02f, 4.795201868e-02f, -1.724355668e-01f, 1.577933729e-01f, -5.919622630e-02f, -1.551781893e-01f, -9.157253057e-02f, -1.483919919e-01f, -1.210045591e-01f, -1.641749293e-01f, -1.706786901e-01f, -1.403294355e-01f, -9.339301288e-02f, 1.264526993e-01f, -2.218544297e-02f, 1.636332572e-01f, 3.967087541e-04f, 4.322623834e-02f, 1.681207865e-01f, 7.136444002e-02f, -7.969716191e-02f, 1.683863401e-01f, -3.023878671e-02f, -9.938129783e-02f, 5.676579475e-02f, 3.919885680e-02f, 5.031626672e-03f, 1.198416501e-01f, 2.835658751e-02f, -5.719067901e-02f, -1.333868653e-01f, -1.417022645e-01f, 4.512787238e-02f, 1.494594663e-01f, -7.859677076e-02f, -8.895819634e-02f, 1.341480911e-01f, 1.732532978e-01f, 1.264043450e-01f, 8.707231283e-02f, 1.751141846e-01f, 4.266738892e-02f, -9.512539208e-02f, 4.869548976e-02f, -6.579093635e-02f, -5.383380130e-02f, 1.648075283e-01f, 7.746919990e-02f, 4.752062634e-02f, -9.075436741e-02f, -9.446619451e-02f, 1.237848252e-01f, 7.742267847e-02f, 5.710606650e-02f, -1.433008164e-01f, -1.769336760e-01f, -1.296622455e-01f, 1.102101281e-01f, -1.750933975e-01f, -2.048050798e-02f, 1.007131189e-01f, -1.010903642e-01f, -1.497375220e-01f, -7.904816419e-02f, -1.742852926e-01f, 1.680848897e-01f, 4.299516976e-02f, 1.120892838e-01f, 4.097463936e-02f, -1.408008337e-01f, 8.290237933e-02f, 5.036523938e-02f, 7.411921769e-02f, 1.987286843e-02f, 8.524857461e-02f, -6.866917014e-02f, 1.428734362e-01f, 2.656694967e-03f, 2.050724812e-02f, -8.188278973e-02f, -6.516221166e-02f, -1.586792916e-01f, 1.173174903e-01f, 1.111289859e-01f, -1.468278319e-01f, -6.339719146e-02f, 1.062241271e-01f, -5.903176591e-02f, 3.037345968e-02f, -1.427011639e-01f, -8.562207222e-02f, 8.834423125e-02f, -3.291839361e-02f, 5.907050893e-02f, 1.087753698e-01f, 1.224441975e-01f, 3.651996329e-02f, -9.098970890e-02f, 1.578957289e-01f, -7.882332802e-02f, -7.561124116e-02f, 1.446372271e-01f, -9.609029628e-03f, -1.688608676e-01f, 1.440641731e-01f, 6.609310955e-02f, 8.753307164e-02f, 2.510607988e-02f, 8.250647038e-02f, -1.637898982e-01f, -1.142570153e-01f, 7.741995156e-02f, 9.315551072e-02f, -3.374091536e-02f, 9.946653247e-02f, 1.301919371e-01f, 6.947974674e-03f, -8.352798223e-02f, 6.809037179e-02f, 6.049630791e-02f, -1.150085852e-01f, 6.694181263e-02f, -4.541018233e-02f, -1.129382178e-01f, 1.281684041e-01f, 1.106526181e-01f, 5.462204665e-02f, -1.705538779e-01f, -1.827384531e-02f, -1.250426471e-01f, 7.822117954e-02f, -2.206742764e-02f, 8.767841011e-02f, 1.690558791e-01f, 1.525923908e-01f, 4.572899081e-03f, -2.361735143e-02f, 9.090436995e-02f, 1.791058928e-01f, 1.757604186e-03f, -3.336706012e-02f, -1.626063287e-01f, 1.294195205e-01f, -1.389932334e-01f, -1.135349944e-01f, -1.671192348e-01f, -3.475933895e-02f, -1.466098577e-01f, -7.708259672e-02f, -9.528889507e-02f, -1.646191329e-01f, -1.423208416e-01f, -1.335096955e-01f, -9.888295829e-02f, -6.499242038e-02f, 1.392223388e-01f, 1.554349214e-01f, 1.550866216e-01f, -9.891595691e-02f, -1.029521674e-01f, 4.201607779e-02f, -1.469940990e-01f, 1.160864308e-01f, -1.076623723e-01f, -1.682121009e-01f, 2.012312040e-02f, 6.126767397e-02f, -7.321508229e-02f, 1.054587811e-01f, 1.222478673e-01f, -1.534259170e-01f, -1.179717202e-02f, 1.059048995e-02f, -1.192755904e-02f, -5.153169483e-02f, 2.656866610e-02f, 6.214243546e-02f, -9.183323383e-02f, -1.482647844e-02f, 1.070448607e-01f, 1.065338850e-01f, 1.149292365e-01f, -2.833988704e-02f, -7.996425033e-02f, 2.397172153e-02f, -9.822461754e-02f, 1.786054373e-01f, 1.523299515e-01f, 3.149285167e-02f, -6.613699347e-02f, 1.059368029e-01f, -2.321091294e-02f, 4.714254662e-02f, -1.144801378e-01f, 2.997543477e-02f, -1.476601660e-01f, -8.012019843e-02f, -7.188297808e-02f, 8.161609620e-02f, 1.559112817e-01f, 3.999713436e-02f, 1.475787163e-01f, 1.111090183e-01f, 2.199368924e-02f, -7.704985142e-02f, -1.540743560e-01f, 1.576790959e-01f, -8.587490767e-02f, -1.466540247e-01f, -3.709957749e-02f, -1.423009038e-01f, -3.257358074e-02f, -3.827525768e-03f, -8.397769928e-02f, 1.864867471e-02f, 1.313632280e-01f, -4.178959131e-02f, 2.020626701e-02f, 3.971885517e-02f, 1.603040844e-01f, 8.552370965e-02f, 1.232103556e-01f, 2.813610621e-02f, -1.437499225e-01f, -1.680946052e-01f, -1.697138548e-01f, -1.629343927e-01f, -1.704468280e-01f, 1.657126695e-01f, -8.428601176e-02f, -9.059108794e-02f, 2.253017947e-02f, 5.095335841e-02f, -1.538971663e-01f, -1.112470180e-01f, -6.771411747e-02f, 1.107438803e-01f, 4.922277294e-03f, 3.362840042e-02f, 7.424905896e-02f, 1.685935855e-01f, 5.800699815e-02f, -1.219014749e-01f, -5.293425545e-02f, -8.397526294e-02f, 4.114168230e-03f, 6.020779163e-02f, -1.540095210e-01f, -9.003363550e-02f, -1.622173041e-01f, 1.286840886e-01f, 2.677607723e-02f, -4.089618847e-02f, 8.803636581e-02f, -1.560505712e-03f, 6.745471805e-02f, 3.806187958e-02f, 4.624259472e-02f, -8.617094159e-02f, -1.665260941e-01f, 5.668406561e-02f, -9.025356919e-02f, -1.458426099e-02f, 1.724476181e-02f, -1.281608343e-01f, -1.406538635e-01f, 9.347945452e-03f, 6.387512386e-02f, 2.220995724e-02f, -5.441476405e-02f, 1.055411100e-01f, 1.393561810e-01f, -8.769880980e-02f, 8.237389475e-02f, -1.335866451e-01f, -1.650241762e-01f, -1.350044757e-01f, 1.187955886e-01f, -1.291605979e-01f, 8.834283799e-02f, -3.505848721e-02f, 1.345799416e-01f, 3.040971793e-02f, 3.140529618e-02f, 1.612195820e-01f, 1.703210175e-01f, 1.697878689e-01f, -6.414804608e-02f, 1.343157887e-01f, -3.806126490e-02f, 6.950680166e-02f, -1.344366819e-01f, -8.913090825e-02f, -1.695644259e-01f, -2.724649198e-02f, -1.531569213e-01f, -9.318630397e-02f, 1.187910214e-01f, -1.794485957e-03f, 3.772448003e-02f, -5.012547970e-02f, 7.499718666e-02f, -1.346716732e-01f, 7.705862075e-02f, 1.145044900e-02f, -1.052471176e-01f, -1.002466157e-01f, -1.771444827e-01f, 1.084372476e-01f, -1.148587614e-01f, -6.146747991e-02f, 1.007184535e-01f, -6.962849945e-02f, -9.366672486e-02f, 3.609269112e-02f, -5.210636184e-02f, -2.163361199e-02f, 1.401887685e-01f, -9.299296141e-02f, -1.754702777e-01f, -9.482298791e-02f, -1.051030383e-01f, -9.475592524e-02f, 1.335847825e-01f, -4.415081441e-02f, 6.926868856e-02f, 1.472734511e-01f, -9.645207971e-02f, -1.495782733e-01f, 1.416078508e-01f, 8.133405447e-02f, 2.004253119e-02f, -9.792955965e-02f, 1.452815682e-01f, 1.255473346e-01f, 1.467271447e-01f, -2.890030108e-02f, -5.582790822e-02f, -6.173248962e-02f, -1.443141848e-01f, 1.477176994e-01f, -1.132609993e-01f, -1.213272065e-01f, -4.543254897e-02f, 9.511680901e-02f, -8.140859753e-02f, -1.772855222e-01f, 1.376333833e-01f, 1.590692997e-01f, -9.161203052e-04f, -2.774888463e-02f, -7.675696909e-02f, -5.034902692e-02f, -1.530445218e-01f, -2.866720222e-02f, 1.441854239e-02f, 3.824887425e-02f, -4.302664101e-02f, -1.507043391e-01f, 9.856835008e-02f, 1.737191081e-01f, 1.356072128e-01f, -6.820312142e-02f, -7.000894099e-02f, 8.895710111e-02f, -6.142421067e-02f, 1.323204786e-01f, 1.293344796e-01f, 8.283200115e-02f, -5.338963121e-02f, 1.749672927e-02f, 3.638903797e-02f, -7.380808890e-02f, 1.035831273e-01f, 1.338831335e-01f, -2.284482494e-02f, 6.751435995e-02f, -1.722034961e-01f, -1.258414239e-01f, -4.434788972e-02f, 1.007391587e-01f, -1.732711643e-01f, -7.764415350e-03f, -3.540665656e-02f, -1.047565974e-02f, 1.753715239e-02f, 1.108927801e-01f, 1.641523838e-01f, 1.692966968e-01f, -9.955789149e-02f, -1.712724119e-01f, -7.899989933e-02f, 1.271273196e-01f, 2.951982617e-02f, 2.173450403e-02f, -8.984215558e-02f, -1.109079570e-01f, 2.633857913e-02f, 1.292052716e-01f, 1.470045298e-01f, 1.068951264e-01f, 1.209023744e-01f, 4.565678537e-02f, -1.061555371e-01f, 9.122113138e-02f, 1.366692334e-01f, 7.145468146e-02f, -3.406140208e-02f, -1.155268252e-01f, 1.439056695e-01f, -3.374502761e-03f, -1.480444074e-01f, 1.987818396e-04f, 9.930375218e-02f, -9.317623824e-02f, -6.804798543e-02f, 1.049041376e-02f, 1.822547242e-02f, -3.372935206e-02f, 8.032152057e-02f, 3.282765299e-02f, 5.768191442e-02f, -1.535932869e-01f, -1.410837471e-02f, -1.537273675e-01f, -1.688284986e-02f, -1.400817302e-03f, -1.617106944e-01f, 1.623569578e-01f, 1.178337261e-01f, -1.621332914e-01f, -3.801631555e-02f, -8.406011760e-02f, 6.972675771e-02f, 1.697821543e-02f, -1.708821058e-01f, 1.013358459e-01f, -1.410394013e-01f, -5.560477450e-02f, -2.113015205e-02f, 5.129256845e-02f, 1.265107840e-01f, -9.421510249e-02f, -1.384841204e-01f, -9.164495021e-02f, -1.443324536e-01f, -7.877423428e-03f, -1.829153597e-01f, -1.844960749e-01f, 1.608456969e-01f, -1.853557229e-01f, -5.113262683e-02f, -6.931038946e-02f, -6.740529835e-02f, -1.541429758e-01f, 4.238628969e-02f, 1.022057831e-01f, 1.511234343e-01f, 1.657711416e-01f, 1.962378994e-02f, 9.112818539e-02f, 1.431800276e-01f, 1.237562895e-01f, 1.133929864e-01f, -1.862580776e-01f, -7.184641063e-02f, -1.751101166e-01f, -1.799828112e-01f, 1.000123098e-01f, 6.515879184e-02f, 1.585240513e-01f, 1.187372804e-01f, 6.105979159e-02f, -5.689061806e-02f, 3.869128972e-02f, 9.409767389e-02f, -1.337556052e-03f, 6.993208081e-02f, -1.036229506e-01f, -8.928902447e-02f, 1.132158749e-02f, 1.037985831e-01f, -1.573332995e-01f, 1.182331070e-01f, -6.434060633e-02f, -4.841130227e-02f, -8.911182731e-02f, 3.895826638e-02f, -4.813136905e-02f, -1.065073237e-01f, 8.351889253e-02f, 1.551422924e-01f, 4.576848075e-02f, -1.616597772e-01f, -1.430849582e-01f, 1.252885461e-01f, 8.935202658e-02f, 4.680904001e-02f, -1.195830107e-01f, -8.128962666e-02f, 1.295433939e-01f, 7.512389868e-02f, -1.482922211e-02f, 1.556682736e-01f, 1.166178510e-01f, 6.812477857e-02f, 1.451594289e-02f, 1.405177116e-01f, -1.614024639e-01f, 6.270480342e-03f, 8.980134875e-02f, -7.907739282e-02f, -1.255066693e-01f, -9.895772673e-03f, 1.685054004e-01f, 9.641455114e-02f, -1.260272786e-02f, 3.418425471e-02f, 7.566745579e-02f, 1.109342054e-01f, 9.252120741e-03f, -1.334080100e-01f, 3.986528143e-02f, -1.966343634e-02f, 6.544655561e-02f, -4.510763660e-02f, 4.460526258e-02f, -1.274822801e-01f, -1.217928529e-01f, -1.079116240e-01f, 4.309304804e-02f, 6.083787233e-02f, -1.286116838e-01f, -1.559319645e-01f, 1.563540101e-01f, -1.389517039e-01f, 1.544778347e-01f, -1.388669759e-01f, 9.763333946e-02f, -9.104128182e-02f, -7.192190737e-02f, 1.387170851e-01f, 4.716108739e-02f, 1.499087214e-01f, 4.362734780e-02f, -1.611992419e-01f, -2.924620174e-02f, -8.275458962e-02f, 1.650387347e-01f, 3.781145904e-03f, 1.079974249e-01f, -1.697008461e-01f, 1.360552013e-01f, -1.060728282e-01f, 5.364285037e-02f, -3.144507110e-02f, 1.005325690e-01f, -9.275029600e-02f, 9.504325688e-03f, 1.722393371e-02f, -7.150016725e-02f, -1.599306017e-01f, -1.092083305e-01f, 7.243882865e-02f, -1.772790700e-01f, 1.560468227e-01f, -1.381624192e-01f, -6.885302812e-02f, 9.819964319e-02f, 6.818504632e-02f, -9.936907887e-02f, 4.270931706e-02f, -7.328612357e-02f, -1.558986902e-01f, 1.080163941e-01f, 1.321317703e-01f, -6.265956908e-02f, 1.290579047e-02f, 7.311173528e-02f, 2.134633064e-02f, 1.612302810e-01f, 1.701994240e-02f, -1.386483163e-01f, -1.625270694e-01f, 1.599961668e-01f, 1.914595254e-02f, -1.054330170e-01f, 3.388846992e-03f, 1.308936030e-01f, -1.536922008e-01f, 3.406160325e-02f, 3.230231255e-02f, -1.140558571e-01f, -1.226682886e-01f, -6.302082539e-02f, -1.150079817e-01f, 1.602029204e-01f, 1.312200427e-01f, -2.926471643e-03f, 1.568541378e-01f, 7.848308980e-02f, 5.954862013e-02f, 6.205975637e-02f, 1.008699387e-01f, 1.345178336e-01f, -1.201114431e-01f, -5.576357618e-02f, -1.450456381e-01f, 1.714674085e-01f, 1.356645674e-01f, -2.137602121e-02f, -1.653530896e-01f, 1.112633720e-01f, 1.552069336e-01f, -1.673627198e-01f, 8.142153919e-02f, 1.341706961e-01f, -5.922392011e-02f, -1.603954583e-01f, -3.597296029e-02f, 7.910018414e-02f, 1.132000312e-01f, 2.034915239e-02f, 2.085386030e-02f, -7.168874890e-02f, 4.222150147e-02f, -9.298066050e-02f, -2.194125205e-02f, 5.451552942e-02f, -5.339183286e-02f, 8.081059903e-02f, 1.503599286e-01f, 1.682735234e-01f, -1.517522782e-01f, -1.637206078e-01f, -1.571683586e-02f, -1.765263677e-01f, -2.352805622e-02f, -1.412237585e-01f, -3.013260476e-02f, -1.284464300e-01f, 4.184788093e-03f, -1.215718985e-01f, 3.168962896e-02f, -5.615862831e-02f, -7.532737404e-02f, -1.659894288e-01f, -1.137587987e-02f, -1.165103167e-01f, -6.656324118e-02f, -1.250312775e-01f, -1.219565272e-01f, -9.012882598e-03f, 7.152663171e-02f, -1.437154412e-01f, 1.591445208e-01f, 1.642183810e-01f, -1.013600733e-02f, 9.719646722e-02f, -2.897842973e-02f, 8.780564368e-02f, -5.581701547e-02f, -1.464622766e-01f, 1.228027493e-01f, -1.089221984e-01f, 2.804225311e-02f, -1.215731651e-01f, -6.802514195e-02f, -1.369515657e-01f, 9.494620562e-02f, -9.762331843e-02f, -3.240480274e-02f, 4.091586173e-02f, -1.716822088e-01f, -4.959096387e-02f, -1.665385514e-01f, -1.673796922e-01f, -8.967863768e-02f, 1.146489754e-01f, -1.685397141e-02f, -8.596270531e-02f, -4.603279382e-02f, 1.690866202e-01f, -1.687263250e-01f, 1.709010452e-01f, -3.477550671e-02f, 1.020336524e-02f, 7.704650611e-02f, 1.552453488e-01f, -1.140024215e-01f, 1.279762238e-01f, -8.264639974e-02f, 9.664058685e-02f, 1.678403765e-01f, 5.266323220e-03f, 9.361030161e-02f, 1.026393548e-01f, 1.195883006e-01f, 1.381737739e-01f, 8.248557895e-02f, 4.516880959e-02f, -1.067383811e-01f, 3.676822409e-02f, -1.809450537e-01f, -5.487429351e-02f, -7.316357805e-04f, -1.757290363e-01f, -1.038767174e-01f, -1.343627870e-01f, 7.951210253e-03f, 1.197294332e-02f, 3.849248588e-02f, 7.467196882e-02f, -4.064993933e-02f, -8.764408529e-02f, -6.856784225e-02f, -9.820730239e-02f, 1.195339859e-01f, 9.620782733e-02f, 1.583241373e-01f, 3.945298493e-02f, -1.814627796e-01f, -1.289903075e-01f, 1.459780633e-01f, -1.601249874e-01f, 4.049448296e-03f, -1.010455042e-01f, 6.386187393e-03f, 1.039167717e-01f, 1.227352843e-01f, 1.570730805e-01f, 1.377414614e-01f, 3.025058657e-02f, -1.439335495e-01f, -8.240529895e-02f, 1.428152919e-01f, -1.763712913e-01f, 5.065354332e-02f, -8.636464924e-02f, 9.988059103e-02f, -1.279639453e-01f, -1.460580528e-01f, 1.409754604e-01f, -1.483499818e-02f, -1.884377301e-01f, 1.659989208e-01f, -6.820507348e-02f, -1.403862238e-01f, -1.789975613e-01f, 1.234098524e-01f, 3.647464886e-02f, -9.776701778e-02f, 4.784413148e-03f, 9.291903116e-03f, -4.578765109e-02f, 6.462725997e-02f, -1.634371579e-01f, 7.483257912e-03f, 2.730439592e-04f, 1.177109554e-01f, -8.559369296e-02f, 7.086819969e-03f, 1.371610463e-01f, 1.352860779e-01f, 1.242263019e-01f, 2.432514541e-02f, -7.626014948e-02f, -2.491471916e-02f, -2.835099027e-02f, 4.995563999e-02f, -7.458900101e-03f, -7.345696539e-02f, 1.066572815e-01f, 1.314387023e-01f, -4.996389151e-02f, -1.047439724e-01f, 1.554960012e-01f, 2.868504077e-02f, 1.494642198e-01f, -7.189875841e-02f, 2.121664584e-02f, 9.583146870e-02f, -1.621039361e-01f, -1.683317572e-01f, -1.800859231e-03f, 4.350353032e-02f, -1.775594503e-01f, -1.525615156e-01f, -8.775104769e-03f, -1.498914063e-01f, 9.682396799e-02f, 1.051681042e-01f, 9.598533064e-02f, 1.370111555e-01f, -6.760212034e-02f, -1.715703160e-01f, 9.874770790e-02f, -1.744947731e-01f, -3.738958016e-02f, -6.810224056e-02f, -1.427553743e-01f, 3.160869703e-02f, 6.668417901e-02f, -3.357941052e-03f, 8.536739275e-03f, -1.335213780e-01f, 1.465139538e-01f, -1.469354033e-01f, 9.009155631e-02f, -6.401349604e-02f, -1.835924983e-01f, -4.644458368e-02f, -4.662286118e-02f, 1.337538958e-01f, -6.760238111e-02f, -5.206099153e-02f, -3.371370211e-02f, 8.200629056e-02f, -1.096424907e-01f, -5.867006257e-03f, -1.005587727e-01f, 2.299895324e-02f, 4.690602794e-02f, 8.084018528e-02f, 1.497314423e-01f, 1.244062930e-01f, -4.819259048e-02f, -1.150498316e-01f, -7.115645707e-02f, -2.636640705e-02f, -1.332022548e-01f, 1.500653010e-02f, 1.685956270e-01f, 2.321048826e-02f, -1.614149809e-01f, -1.093810797e-01f, -7.861752808e-02f, 1.859575808e-01f, -4.952164367e-02f, 4.631410912e-02f, 6.352113187e-02f, -1.193968430e-01f, -1.369118840e-01f, 1.829124801e-02f, 1.813964993e-01f, 8.638758957e-02f, -1.440921575e-01f, 5.709878355e-02f, -1.594405025e-01f, 7.198834326e-03f, 1.730725914e-01f, 9.848602116e-02f, -4.333553836e-02f, 9.915175289e-02f, 6.457880139e-02f, 1.018351167e-01f, -2.941544540e-02f, 1.402039677e-01f, 1.571514159e-01f, -1.137930378e-01f, 1.494538933e-01f, 1.254385803e-02f, 2.892165445e-02f, -9.488240629e-02f, 1.655855924e-01f, -2.214258350e-02f, 7.637465000e-02f, -2.514308505e-02f, -3.345609829e-02f, -1.371605694e-01f, 5.582110211e-02f, -1.063120216e-01f, 1.380516440e-01f, -5.927168950e-02f, -9.892019629e-02f, 9.431886673e-02f, 3.103463165e-02f, 1.133550704e-01f, -1.129292995e-01f, -7.788295299e-02f, 3.330972791e-02f, 2.011263743e-02f, -4.025141895e-02f, 1.155420952e-02f, -8.668866009e-03f, 1.204184070e-01f, -3.788872808e-02f, 9.206939489e-02f, -1.251220703e-01f, -1.042718962e-01f, 5.986740440e-02f, 1.780378819e-01f, 4.960360378e-02f, 8.876337111e-02f, -1.635974497e-01f, -1.464409232e-01f, 4.979830608e-02f, 7.223302871e-02f, -3.020002879e-02f, 1.387041807e-01f, -3.151121363e-02f, 9.853722900e-02f, -1.327608079e-01f, 1.309296489e-01f, -1.627452858e-02f, -1.429213025e-02f, -8.704583347e-02f, 1.398645639e-01f, -1.443583518e-01f, 1.391341686e-01f, -8.894843608e-02f, 1.023028195e-01f, 7.027594000e-02f, 9.413932264e-02f, 7.325895876e-02f, 5.825117975e-02f, -1.642178297e-01f, -6.682106853e-02f, -4.588355869e-02f, 1.166988760e-01f, -7.437161356e-02f, 5.374951661e-02f, -8.497621864e-02f, 1.680833995e-01f, -7.450324297e-02f, 4.408185929e-02f, -1.222675592e-01f, 1.041800529e-01f, 1.276672184e-01f, -1.518002898e-01f, -8.638593368e-03f, -1.706670225e-01f, -2.815107815e-02f, 6.482627708e-03f, 9.082090110e-02f, 6.264792383e-02f, 3.596685361e-03f, -2.052828856e-02f, 8.783292770e-02f, 4.951416701e-02f, 1.061974764e-01f, -2.054325119e-02f, -1.730238050e-01f, 1.158301458e-01f, 4.165605083e-02f, 1.555660069e-01f, 1.047085151e-01f, -1.184637100e-01f, -1.565004587e-01f, 1.419631988e-01f, 1.553893536e-01f, -8.859618008e-02f, -8.326475322e-02f, 8.937159181e-02f, -1.142704743e-03f, 9.856911749e-02f, -1.383033693e-01f, 5.494566634e-02f, -6.481474638e-02f, 3.268762724e-03f, 6.719877571e-02f, -1.061478257e-01f, 5.871139094e-02f, 6.717237085e-02f, 1.120849624e-01f, 9.651947021e-02f, -1.144591495e-01f, 9.471793473e-02f, -2.562663518e-03f, 1.077323332e-01f, -1.724322326e-02f, 1.339174211e-01f, 1.484960169e-01f, 2.744487114e-02f, -9.207440168e-02f, -7.963637263e-02f, 3.683267534e-02f, 7.618019730e-02f, -9.165934473e-02f, -1.738853753e-02f, 1.333446503e-01f, 2.696056291e-02f, -1.786740869e-01f, -4.804682732e-02f, 1.390711218e-01f, -1.665893346e-01f, 1.450117230e-01f, 1.573061049e-01f, -1.711217910e-01f, -5.143768713e-02f, -8.864118159e-02f, 3.343874589e-02f, -1.246703342e-01f, -5.707112327e-02f, -3.655821085e-02f, 4.352853447e-02f, 5.814379826e-02f, 1.718050241e-01f, 6.016539410e-03f, -1.139404625e-01f, 9.317323565e-02f, -1.645913273e-01f, -1.518343538e-01f, -1.311214119e-01f, -1.195176169e-01f, 1.485412121e-01f, 4.854066670e-02f, 2.857537381e-02f, -5.652103573e-02f, -1.375301629e-01f, 1.688316315e-01f, 7.796443254e-02f, 9.606782347e-02f, 1.083933339e-01f, -8.625323325e-02f, 1.857694238e-02f, 1.577945310e-03f, -1.661892533e-01f, -6.716562063e-02f, -9.435284138e-02f, -9.730676562e-02f, 7.540535927e-02f, -1.265405118e-01f, -1.276258826e-01f, -8.411308378e-02f, 4.792092368e-02f, 3.528758138e-02f, 1.604239941e-01f, 2.381802909e-02f, 3.046420403e-02f, -1.012572423e-01f, 1.088381484e-01f, -1.520230770e-01f, 3.479639068e-02f, 4.134306312e-02f, -1.737305820e-01f, 9.264451265e-02f, 1.728154421e-01f, 7.454551011e-02f, 1.574431062e-01f, -1.714841574e-01f, 1.294207722e-01f, -7.068728656e-02f, 1.262246221e-01f, 1.645814776e-01f, 1.263021976e-01f, -1.098458767e-01f, 9.744238108e-02f, -1.231309474e-01f, 4.301672429e-02f, 1.571776718e-01f, 5.306086689e-02f, 6.232666317e-03f, 1.094535366e-01f, 4.040456936e-02f, -1.689354330e-01f, -7.139894366e-02f, -1.071431115e-01f, -7.847081125e-02f, 1.459319592e-01f, -1.612970531e-01f, -2.403478697e-02f, -1.032313630e-01f, 8.499465883e-02f, 2.468100749e-02f, -2.464229241e-02f, 7.812669128e-02f, 7.099787146e-02f, 1.109404713e-01f, 1.673572063e-01f, -9.600763023e-02f, 8.658132702e-02f, -6.689971685e-02f, 1.632303745e-01f, -1.424512174e-02f, 5.534411594e-02f, 6.951803714e-02f, -1.371743828e-01f, 5.794935673e-02f, -8.406566828e-02f, 1.671138108e-01f, 1.120752394e-01f, -1.378587037e-01f, 1.473325938e-01f, 5.215845536e-03f, -1.280771643e-01f, 1.584600657e-02f, 2.492160164e-02f, 8.807788044e-02f, 8.146697283e-02f, 9.014913440e-02f, -1.653802693e-01f, -5.427322164e-02f, 1.676074266e-01f, 7.319749892e-02f, 6.507440656e-02f, 1.386416703e-01f, -1.442939639e-01f, -9.553789347e-02f, -5.963606387e-02f, -1.567787677e-01f, -1.655729264e-01f, -8.702158928e-02f, -2.496705763e-02f, -6.844825111e-03f, 8.731000870e-02f, 3.933368251e-02f, -1.703166068e-01f, -5.535093602e-03f, 1.301417351e-01f, 6.333290786e-02f, -6.766900420e-02f, -8.893351257e-02f, -1.545221657e-01f, 1.376625746e-01f, 8.899299428e-03f, -1.406877041e-01f, 4.653591290e-02f, -9.885670990e-02f, -6.855841726e-02f, -1.561066359e-01f, 9.389198571e-02f, -1.685673296e-01f, 7.528214157e-02f, -1.322690845e-01f, -1.393106729e-01f, 7.088143378e-03f, -3.222039342e-02f, 6.260838360e-02f, 4.914784059e-02f, -1.379004866e-01f, 2.474185452e-02f, -5.779571086e-02f, -3.969075531e-02f, -5.098748580e-02f, 7.489449531e-02f, 4.197047651e-02f, -1.025742013e-02f, 7.722865045e-02f, 5.541067570e-02f, 9.714587778e-02f, 5.357704312e-02f, -5.193831772e-02f, 3.963827342e-02f, 2.287295461e-02f, 1.395434588e-01f, 1.298343986e-01f, 9.866543859e-02f, 8.992604911e-02f, -1.354215592e-01f, -1.263429970e-01f, -8.257725835e-02f, -2.224381827e-02f, -1.811926365e-01f, -1.123025864e-01f, 1.597922444e-01f, 8.502229303e-02f, -1.105275899e-01f, -1.076308787e-01f, 6.412599701e-03f, -1.114063524e-02f, 7.430868596e-02f, 4.601028934e-02f, -1.653446853e-01f, 1.531433463e-01f, 6.235118955e-02f, -1.732637286e-01f, 1.062640995e-01f, 1.446703374e-01f, -1.154568046e-01f, 8.191709965e-02f, -1.453640312e-01f, 6.103757024e-02f, 5.101727322e-02f, -1.580663621e-01f, -5.242436379e-02f, 1.482879668e-01f, 4.254066944e-02f, 2.833437407e-03f, -2.700836211e-02f, 7.970266975e-03f, -1.384925693e-01f, -1.601489037e-01f, -7.325600833e-02f, -2.172757173e-03f, -1.470010877e-01f, -1.602585800e-02f, -1.007050872e-01f, 8.547158539e-02f, 1.419643164e-01f, -1.366606355e-01f, 1.176654622e-01f, -1.207883060e-01f, 5.687640235e-02f, -6.155630946e-02f, 4.608683288e-02f, 1.709978580e-01f, -2.578433976e-02f, 6.376725435e-02f, -4.839540645e-02f, 1.792313457e-01f, -6.156532094e-02f, -8.788452297e-02f, 5.428191274e-03f, 7.893545181e-02f, 1.719445735e-02f, 1.633964777e-01f, -8.449660987e-02f, 1.131308377e-01f, 7.011910528e-02f, -1.510712039e-02f, -9.721346200e-02f, 7.151953131e-02f, 1.604875326e-01f, -1.695128530e-01f, 5.182150379e-02f, -1.289376020e-01f, -4.634131864e-02f, -3.549001366e-02f, -1.726225391e-02f, -5.343618244e-02f, -1.515294760e-01f, 1.884697936e-02f, 9.461893886e-02f, -9.059166163e-02f, 8.328165859e-02f, 7.140025496e-02f, -4.686034471e-02f, -8.606115729e-02f, 7.564251125e-02f, 1.301866472e-01f, 1.218967512e-01f, -1.509002894e-01f, 1.359836198e-02f, -5.564995576e-03f, -2.601676062e-02f, -1.158433482e-01f, 4.122449830e-02f, 1.183668822e-01f, 1.571585052e-02f, -1.757907569e-01f, -1.749698818e-01f, 1.204695851e-01f, -6.581935287e-02f, -8.801761270e-02f, 1.319906861e-01f, 5.179345235e-02f, 1.043483135e-04f, -1.168816909e-01f, 6.859877706e-02f, -1.723886579e-01f, 6.110045314e-02f, -1.586479098e-01f, -8.589513600e-02f, 1.100814864e-01f, -2.593886107e-02f, -1.211007386e-01f, 8.942618221e-02f, -1.411298960e-01f, -1.351413727e-01f, 1.516620070e-01f, 1.616861075e-01f, 1.107233483e-02f, -1.609334648e-01f, -1.121810377e-01f, 9.436567128e-02f, 2.862400003e-02f, -6.829999853e-03f, -8.860731870e-02f, 1.326366812e-01f, -2.160864510e-02f, 1.635488719e-01f, 1.154386178e-01f, -1.063944027e-01f, 1.055842116e-01f, -1.159773469e-01f, -1.062933132e-01f, 1.708797812e-01f, -9.726949781e-02f, -9.392678738e-02f, -4.731899127e-02f, 6.887964159e-02f, -7.914257795e-02f, 5.008046329e-02f, 5.090112984e-02f, -1.379349362e-02f, -1.826559156e-01f, 6.541872281e-04f, -1.026991457e-01f, -6.468538940e-02f, -1.103047282e-01f, 6.377364695e-02f, 6.126342714e-02f, -9.233606607e-02f, -1.106907502e-01f, 6.895885617e-02f, -1.146955714e-01f, -9.803926945e-02f, -6.888850592e-03f, -1.437005103e-01f, 8.366219699e-02f, -1.524461806e-01f, 1.926775463e-02f, 1.614849269e-01f, 9.367042035e-02f, 9.018160403e-03f, -1.858071834e-01f, -5.074754357e-02f, 8.478780836e-02f, 6.752844900e-02f, 1.110693365e-01f, -1.076145396e-01f, 1.558926105e-01f, -1.157884747e-01f, -1.745737530e-02f, -1.233515218e-01f, -1.114620417e-01f, -3.121962771e-02f, 1.036287770e-01f, -1.335028857e-01f, 6.944704056e-02f, 4.969302192e-02f, 1.654450148e-01f, 1.136141568e-01f, 3.746882081e-02f, 5.933338031e-02f, -6.593587250e-02f, 7.402204722e-02f, 1.669462472e-01f, 1.074405387e-01f, -1.411310490e-02f, 3.949746490e-02f, -9.766697884e-02f, 5.265591666e-02f, 3.338230029e-02f, 6.135125458e-02f, 2.519054338e-02f, -8.431009203e-02f, 9.576199204e-02f, -1.122546420e-01f, 1.350912750e-01f, -1.349168122e-01f, -3.997609019e-02f, 1.446906663e-02f, 5.123109370e-02f, 7.289156318e-02f, 9.589640796e-02f, -1.224685982e-01f, 5.880397558e-02f, 1.305844784e-01f, 2.785366587e-02f, -5.789921060e-02f, -1.326594055e-01f, -1.534471810e-01f, -6.825434417e-02f, 1.066205055e-01f, -9.072307497e-02f, -2.431739680e-02f, 1.737868972e-02f, -5.657381564e-02f, 1.577288359e-01f, -2.999759279e-03f, -2.204355318e-03f, 1.149043664e-01f, 1.421044618e-01f, 7.853249460e-02f, -1.022159010e-01f, -3.957901150e-02f, -1.018978357e-01f, 1.351308674e-01f, -1.528822184e-01f, -9.871428460e-02f, 1.574384272e-01f, 1.616393328e-01f, 1.607392728e-01f, -2.038343623e-02f, -5.827523023e-02f, -1.334655732e-01f, -1.000986844e-01f, 1.275311410e-01f, 1.271912009e-01f, -8.740648627e-03f, 7.003007829e-02f, -9.850137867e-03f, -1.668323874e-01f, -1.326891929e-01f, -7.969082892e-02f, -1.711554229e-01f, 6.406906247e-02f, 1.553736348e-02f, 1.383462399e-01f, -1.566180438e-01f, -1.600886434e-01f, -1.143860966e-01f, -1.861656606e-01f, 6.263151020e-02f, -3.762083501e-02f, 3.910174221e-02f, 1.404861659e-01f, -7.704722136e-02f, 2.885328420e-02f, 2.555272542e-02f, 1.359745860e-01f, 6.264805328e-03f, 2.754686773e-02f, -1.740259379e-01f, -1.314557642e-01f, -8.578717709e-02f, -4.069742933e-02f, 3.440279886e-02f, -8.763588034e-03f, 2.722915448e-02f, 1.238646507e-01f, -1.770322472e-01f, -2.147530764e-02f, -6.239388511e-02f, 9.617370367e-02f, 6.066831201e-02f, 4.525671899e-02f, 1.466433406e-01f, 1.644796431e-01f, -1.822026670e-01f, 1.219281405e-01f, -1.795398146e-01f, 1.330981255e-01f, -2.817479521e-02f, -1.791219972e-02f, -7.039741427e-02f, -1.485985965e-01f, 1.670372486e-01f, 9.553351253e-02f, 8.877865225e-02f, 8.785466664e-03f, 3.447027132e-02f, 1.502614766e-01f, 6.582939625e-02f, -8.897721022e-02f, 4.963066429e-02f, -5.359163880e-02f, 1.443210430e-02f, 3.334666789e-02f, -6.604427099e-02f, -1.224441007e-01f, 1.167207956e-01f, 1.978202350e-02f, 1.588220596e-01f, 7.084254920e-02f, 1.323286742e-01f, -1.665989757e-01f, 9.730412811e-02f, 1.555435956e-01f, 1.459962428e-01f, -3.023874201e-02f, 1.062029004e-01f, 5.100652948e-02f, 9.709081799e-02f, -1.121287718e-01f, 4.748815671e-02f, 1.813999265e-01f, -4.749208316e-02f, -7.232810557e-02f, -1.412051022e-01f, -1.021652818e-01f, -7.209803164e-02f, 9.395796061e-02f, 1.150090620e-01f, -1.222252324e-01f, -7.641085237e-02f, -4.062958807e-02f, 2.472695522e-02f, 1.753092930e-02f, 1.044056490e-01f, -1.512298360e-02f, 4.750202224e-02f, -3.340753168e-02f, -9.195591509e-02f, -1.058168635e-01f, 4.310022295e-02f, 1.031871811e-01f, -1.083091125e-01f, -5.291470513e-02f, 1.111742407e-01f, 1.223497093e-02f, -1.408023834e-01f, -1.332695931e-01f, 1.617572829e-02f, 9.678351879e-02f, 8.990386873e-02f, 1.593724340e-01f, -1.752849370e-01f, 4.202616587e-02f, 6.445594132e-02f, -1.728306562e-01f, 1.616197377e-01f, 2.417245507e-02f, -2.639346756e-02f, 9.283252992e-03f, -1.536138356e-01f, -5.758892279e-03f, 2.271219343e-02f, -1.796427816e-01f, -1.293140352e-01f, -5.194478855e-02f, -6.584605575e-02f, 6.298488379e-02f, 2.228343859e-02f, -1.377298124e-02f, 1.640763879e-01f, 4.337185249e-02f, -9.788081795e-02f, -4.708001390e-02f, -9.286598116e-02f, -1.011791155e-01f, -1.583290286e-02f, -7.088278979e-02f, 4.937315360e-02f, 5.877719820e-02f, -1.913293637e-02f, 1.409760863e-01f, -5.324856564e-02f, -2.764472179e-02f, -1.721705645e-01f, 8.164674044e-02f, 1.629963368e-01f, -1.716453731e-01f, 5.089914426e-02f, -1.362046301e-01f, 1.068503223e-02f, -1.569782645e-01f, -1.371172071e-01f, -4.403332621e-02f, 4.940141458e-03f, 6.437604129e-02f, 1.740193516e-01f, 1.107632220e-01f, 1.609291732e-01f, 9.535755962e-02f, 6.058713421e-03f, -7.748658210e-02f, -6.940580159e-02f, 1.075304151e-01f, 1.570505202e-01f, -1.004695892e-02f, 7.514665276e-02f, 9.610356390e-02f, 1.010437235e-01f, -2.460280620e-02f, 2.933232300e-02f, 9.565460682e-02f, -8.929916471e-02f, 1.307512671e-01f, 1.854783855e-02f, -5.799045786e-02f, 1.007025912e-01f, 1.676294208e-01f, -7.744117081e-02f, -4.047015682e-02f, -6.979085156e-04f, -8.440766484e-02f, -1.549995840e-01f, -3.381484002e-02f, -1.006478965e-01f, -6.235503778e-02f, -2.389430255e-02f, 5.461861193e-02f, -1.096855849e-01f, 1.164824329e-02f, -5.004310980e-02f, 3.298321739e-02f, -1.034737080e-01f, -9.527890943e-03f, -1.070669442e-01f, 3.517992049e-02f, 4.715978727e-02f, -2.079443820e-02f, 1.589640528e-01f, 8.860338479e-02f, -1.035507917e-01f, 1.343348473e-01f, 1.367139220e-01f, 8.761242032e-02f, -1.741768718e-01f, -1.144880205e-01f, 4.247811437e-02f, 6.139851734e-02f, -4.870979488e-02f, -1.579933316e-01f, -1.454023570e-01f, 1.532116681e-01f, 1.369016320e-01f, 1.289612353e-01f, -1.480874717e-01f, -4.892183840e-02f, 4.503879230e-03f, -8.727511391e-03f, 9.046655893e-02f, -6.105788425e-02f, -3.975196183e-02f, 1.269714236e-01f, -6.458824873e-02f, 3.623383120e-02f, 6.482648849e-02f, 1.239809617e-01f, -2.405525558e-02f, 1.946568489e-02f, -3.402344137e-02f, -1.714130491e-01f, 1.569583118e-01f, -5.451546516e-03f, 2.241182141e-02f, -1.035223529e-01f, -1.038490906e-01f, -1.696524024e-02f, 9.623724967e-02f, -1.494195312e-01f, 1.226892024e-01f, 7.902465016e-02f, 1.746016443e-01f, -5.958873779e-02f, 1.719097346e-01f, -2.990249358e-02f, -1.375577599e-01f, 1.082511395e-01f, -4.129005224e-02f, 4.281435162e-02f, -1.517398953e-01f, 7.494212128e-03f, 8.684659004e-02f, 1.399316937e-01f, 3.984709829e-02f, -8.224436641e-02f, -3.992929310e-02f, 1.622530669e-01f, 1.128541213e-02f, 1.250830442e-01f, 1.802917421e-01f, 4.067762196e-02f, -7.725854218e-02f, -8.210442215e-02f, -1.094615683e-01f, 7.009303570e-02f, 9.213884175e-02f, 1.415201575e-01f, -1.475107521e-01f, 1.674935818e-01f, -5.733554065e-02f, 1.161312610e-01f, -1.649430022e-02f, 1.007267162e-01f, -6.027108431e-02f, 2.732540295e-02f, 1.088214442e-01f, -2.934958972e-02f, 1.728683263e-01f, -2.780234441e-03f, -1.304988414e-01f, -9.178820252e-02f, -8.264939487e-02f, -3.206505626e-02f, 7.258377969e-02f, 4.802946746e-02f, 6.414236128e-02f, -1.026584283e-01f, 1.585506201e-01f, -4.592835531e-02f, 5.120481551e-02f, 1.175348312e-01f, 3.923340701e-04f, -1.584206671e-01f, 1.502845883e-01f, 7.359436713e-03f, -1.651400179e-01f, 1.215392128e-01f, -1.655463129e-01f, 1.151321679e-01f, -1.500132233e-01f, -6.582801044e-02f, -6.726787239e-02f, 4.459941015e-02f, 8.705756068e-02f, 3.451761231e-02f, 1.320329029e-02f, 5.122260191e-03f, 1.079561263e-01f, 8.258493245e-02f, 3.683502227e-02f, 1.297983378e-01f, 8.550809324e-02f, -2.778276615e-02f, 9.980070591e-02f, 7.996534556e-02f, 1.487197876e-01f, -1.762419343e-01f, -8.676195145e-02f, 8.989089727e-02f, 1.077393219e-01f, -1.145825237e-01f, -7.984694839e-02f, -4.174331948e-02f, 2.759090997e-02f, 1.394523084e-01f, -3.391081700e-03f, -1.837237775e-01f, 5.180101842e-02f, -1.920332909e-01f, 5.062423646e-02f, 1.619890332e-01f, -1.243661046e-01f, 1.624025851e-01f, 9.844331443e-02f, 1.090107709e-01f, 1.432374269e-01f, -3.478649259e-02f, -1.602344513e-01f, -1.538729817e-01f, 6.975247711e-02f, 1.422615498e-01f, 8.133389801e-02f, -6.493283063e-02f, -5.504025519e-02f, 3.181160986e-02f, -1.531261504e-01f, 1.583675593e-01f, -1.326789409e-01f, 1.645650566e-01f, -4.450447485e-02f, 1.576010734e-01f, 2.888491005e-02f, -1.109586135e-01f, 8.521091193e-02f, 1.652885228e-01f, -1.294552237e-01f, 9.034340829e-02f, 7.096262276e-02f, 2.072395757e-02f, -8.921612799e-02f, -1.806393266e-01f, -2.627400309e-02f, -9.780691937e-03f, 1.600252688e-01f, 2.799277892e-03f, -1.743603051e-01f, -1.267871261e-01f, -9.288853407e-02f, 1.643584818e-01f, 2.300026827e-02f, 6.359053403e-02f, 8.728525043e-02f, -1.004433632e-01f, -1.809987575e-01f, 1.004947126e-01f, -9.990885854e-02f, -5.426420644e-02f, 1.463546306e-01f, -1.650187224e-01f, 8.740089089e-02f, -1.764062345e-01f, -1.105011776e-01f, -1.273641735e-01f, -4.206795245e-02f, -1.184405312e-01f, -8.459267020e-02f, 1.553226411e-01f, 9.841436148e-02f, 5.953931063e-02f, -9.939491004e-02f, -1.633004695e-01f, 2.422715537e-02f, 3.509063646e-02f, 6.032354385e-02f, -1.598418653e-01f, -6.686223298e-02f, -4.150307551e-02f, -1.617283672e-01f, -1.727251261e-01f, -1.792313159e-01f, 2.723985352e-02f, -3.106985427e-02f, -2.975331061e-02f, -1.766058803e-02f, 1.389523894e-01f, -1.673425287e-01f, -6.072925776e-02f, 2.069159783e-02f, -1.379263848e-01f, -5.563212559e-02f, 8.484872431e-02f, -1.454554964e-02f, 6.591568142e-02f, -1.075776890e-01f, 1.537318081e-01f, -1.849860400e-01f, 6.580895185e-02f, 9.156889468e-02f, 9.809054434e-02f, -1.081626629e-03f, 6.176609173e-02f, -1.264776587e-01f, 1.224212721e-02f, 3.794527054e-02f, 1.236343160e-01f, -1.459993869e-01f, -6.339866668e-02f, 8.366215229e-02f, 3.280854970e-02f, 7.315106690e-02f, -3.635782748e-02f, -1.330361962e-01f, -3.501284122e-02f, -9.949205071e-02f, -1.815195829e-01f, 9.342884272e-02f, 7.483568788e-02f, 8.681747317e-02f, -9.918325394e-02f, -1.615110636e-01f, 1.462667733e-01f, 1.081086844e-01f, -9.044392407e-02f, 6.139793247e-02f, -2.179364860e-02f, 1.112541184e-01f, 1.282592118e-01f, 7.008973509e-02f, -4.084608704e-02f, -1.572288871e-01f, -1.349043846e-01f, -2.977007627e-02f, -2.078976855e-02f, -2.731415443e-02f, 7.436606288e-02f, 5.821272731e-03f, 6.508561224e-02f, -4.612163454e-02f, 1.331960410e-01f, -6.036478281e-02f, -2.122312784e-02f, 8.328352123e-02f, 9.561679512e-02f, -3.315763548e-02f, -1.701787412e-01f, 4.349277820e-03f, 1.072591543e-01f, 1.360165775e-01f, 9.902645648e-02f, -8.072537370e-03f, -9.457222372e-02f, -1.359272599e-01f, -1.794128567e-01f, -1.353616267e-01f, 1.460858583e-01f, -1.376100928e-01f, -5.402630568e-02f, -5.848647282e-02f, 7.234097272e-02f, 1.261646748e-01f, -1.507422775e-01f, -1.463477965e-02f, 3.465983085e-03f, 8.209028840e-02f, -8.060386032e-02f, -7.493565977e-02f, 7.980908453e-02f, -5.878221989e-02f, -6.137780845e-02f, 9.647474438e-02f, 5.660333857e-02f, 9.092468768e-02f, -1.055534482e-01f, 1.031130552e-01f, 1.438917816e-01f, 2.515602671e-02f, 8.584658056e-02f, 1.439827979e-01f, -5.135859549e-02f, -1.844433993e-01f, 1.627093740e-02f, 1.232463345e-01f, -1.167593598e-01f, -4.531270638e-02f, 5.759228766e-02f, 1.173637584e-01f, -1.376776695e-01f, 3.712819144e-02f, 5.147600546e-02f, -1.294415891e-01f, 1.113017201e-01f, -1.004848778e-01f, 9.033953398e-02f, 1.249914151e-02f, -4.053299129e-02f, 1.303541809e-01f, -1.527207792e-01f, 6.966580451e-02f, -4.861726984e-02f, 1.075247582e-02f, -4.314233735e-02f, -1.497614682e-01f, 5.592207238e-02f, 1.613429338e-01f, 1.613324732e-01f, -5.446070433e-02f, 9.244758636e-02f, 1.503477097e-01f, 2.631746605e-02f, 5.398139730e-02f, 9.066824801e-03f, -7.857321948e-02f, -1.350359917e-01f, 5.726341158e-02f, -1.263583153e-01f, 8.084005862e-02f, 1.345694363e-01f, 3.963559121e-02f, -1.692703515e-01f, 1.401232556e-02f, 1.616852432e-01f, 1.191153750e-01f, 6.457988918e-02f, -1.181301549e-01f, -1.176290512e-01f, -1.701031625e-01f, 2.912090719e-02f, 1.522363126e-01f, 5.998620763e-02f, 6.580527127e-02f, -1.991233230e-02f, -3.759020194e-02f, -4.366236553e-02f, 5.081994459e-02f, 3.035211563e-02f, 9.213747829e-02f, -1.632144004e-01f, -6.796605885e-02f, -1.254561543e-01f, 8.085664362e-02f, -1.639661044e-01f, -3.211140260e-02f, 1.616273224e-01f, 5.760407075e-02f, 4.307607934e-02f, 1.561626941e-01f, 2.401573397e-02f, 1.676627398e-01f, 1.812317073e-01f, 3.912660107e-02f, 5.148981139e-02f, -5.105029047e-02f, 2.124195732e-02f, 1.308584027e-02f, 8.058461547e-02f, 6.453320384e-02f, 1.655209363e-01f, -1.509637386e-01f, -1.180758998e-01f, 6.571878493e-02f, 1.575272530e-01f, 1.215583012e-01f, -2.666107146e-03f, -7.248262316e-02f, 1.736540720e-02f, 4.525506124e-02f, -5.705830827e-02f, -6.430239230e-02f, 1.399028152e-01f, -1.323125660e-01f, 5.009061471e-02f, -1.345400810e-01f, -1.291995645e-01f, 1.017990410e-01f, 8.401868865e-03f, 1.558536440e-01f, 8.835881203e-02f, -1.548127532e-01f, -2.961552329e-02f, 1.247089580e-01f, 1.333935112e-01f, -2.939437144e-02f, -3.351844102e-02f, -1.203935370e-01f, 1.284581125e-01f, 1.625685096e-01f, -2.267544344e-02f, 1.216353029e-01f, 5.975563079e-02f, 1.724505275e-01f, -8.296781033e-02f, 1.616524160e-02f, -2.585146204e-02f, -8.478248119e-02f, -9.952407330e-03f, -1.090647951e-01f, -1.776923984e-01f, 1.673789620e-01f, 1.267913431e-01f, -1.025036722e-02f, 1.312661916e-01f, 3.755117953e-02f, 4.655023664e-02f, -8.554060012e-03f, 1.632316411e-01f, -9.912919998e-02f, 5.778623372e-02f, 2.916703373e-02f, 2.384287864e-02f, 2.307785209e-03f, 2.451830730e-02f, 5.396280438e-02f, -1.550210118e-01f, -1.257407516e-01f, -3.899254277e-02f, 1.144879386e-01f, 8.166401647e-03f, -7.302986085e-02f, -5.161469057e-02f, -9.899523109e-02f, 1.116507277e-01f, -1.645291895e-01f, 1.545516253e-01f, -1.156924516e-01f, 1.703255177e-01f, 4.383191839e-02f, -8.048144728e-02f, 2.998283319e-02f, 1.057386473e-01f, 1.714925915e-01f, -1.460869610e-01f, -9.815359116e-02f, -1.234418005e-01f, -4.564248398e-02f, 1.348617077e-01f, -5.956494808e-02f, 1.609182209e-01f, 1.606943905e-01f, -7.257523388e-02f, 2.278093947e-03f, -8.133423328e-02f, -9.741721302e-02f, -1.333352923e-01f, -1.179748997e-01f, 1.225511134e-01f, 1.245609205e-02f, -1.290989965e-01f, -9.882983565e-02f, -1.497471631e-01f, -3.056313656e-02f, -1.479405165e-02f, -7.624292374e-02f, -1.606266052e-01f, -2.539083920e-02f, 5.512345955e-02f, -8.112163842e-02f, -5.441048369e-02f, 1.198520362e-01f, 1.565129459e-01f, 5.083278939e-02f, 5.567321181e-02f, 6.222871318e-02f, 8.703074604e-02f, -3.040437587e-02f, 5.523146316e-02f, -4.465498030e-02f, -9.681595862e-02f, 4.968047887e-02f, -8.300856501e-02f, 1.134734899e-01f, 4.571527615e-02f, 1.073575690e-01f, -8.316462487e-02f, 1.537863463e-01f, -7.307597995e-02f, 1.232483685e-01f, 1.179525778e-01f, 1.355755031e-01f, 1.169463322e-01f, -1.077022180e-01f, 3.727046540e-03f, -1.336572319e-01f, -1.646278985e-02f, -1.364485472e-01f, -3.094589338e-02f, 8.922275156e-02f, -3.692453355e-02f, -1.537723988e-01f, 1.181047708e-01f, 1.400125921e-01f, 1.829870045e-02f, -2.982629463e-02f, -1.490785927e-01f, 1.520720124e-01f, -5.261943117e-02f, -2.032853197e-03f, 4.833134636e-02f, -7.158958912e-02f, -4.979619756e-02f, -1.576313376e-01f, 2.225633152e-02f, 1.564591825e-01f, 2.990510873e-02f, 9.605020285e-03f, -1.324653924e-01f, -1.096302941e-01f, -9.137749672e-03f, 1.502392143e-01f, -1.274946034e-01f, 1.307980344e-02f, 1.186188385e-01f, -3.166049346e-02f, 1.500895768e-01f, -8.920408040e-02f, -1.490860619e-02f, -1.483729668e-02f, 3.428742662e-02f, 6.582595408e-02f, 5.573812127e-02f, 1.293833852e-01f, -9.094572067e-02f, -7.649830077e-03f, -2.174696326e-02f, 5.773960426e-02f, -2.253568731e-02f, 8.914479613e-02f, -1.647762656e-01f, -5.353115872e-02f, 7.773185521e-02f, 6.303529255e-03f, 9.760465473e-02f, 7.210996002e-02f, 8.357378840e-02f, -1.018660441e-01f, -1.733936816e-01f, 1.365811080e-01f, -1.636641920e-01f, 4.539809749e-02f, 1.417648643e-01f, -1.243903115e-01f, 3.250241652e-02f, 4.814492911e-02f, -3.399777226e-03f, -1.190202758e-01f, -7.045568526e-02f, 1.626365036e-01f, 1.162356064e-01f, -1.185848117e-01f, -1.611675322e-01f, -7.321170717e-02f, 7.978954911e-02f, -1.404734105e-01f, 5.968641490e-02f, -5.287959799e-02f, -6.030615047e-02f, -1.097697914e-01f, 1.875019222e-01f, -1.267255843e-01f, 1.764344275e-01f, 1.752209477e-02f, -1.124519110e-01f, 1.570866704e-01f, -1.290077567e-01f, -6.039237604e-02f, 1.596567333e-01f, -4.000954702e-02f, -9.148672223e-02f, -9.424421191e-02f, -9.642219543e-02f, -1.455737352e-01f, -8.021152578e-03f, 9.165813029e-02f, -8.202680200e-02f, -1.491464227e-01f, 4.276796430e-02f, 2.289855666e-02f, 1.559526026e-01f, -1.402507424e-01f, 6.940017641e-02f, 1.646707952e-01f, 1.446494013e-01f, -1.170311347e-01f, 3.332717717e-02f, 6.638015062e-02f, -1.289992332e-01f, 1.048973948e-01f, -1.006348729e-01f, -1.204541624e-01f, 1.091771051e-01f, 1.783128828e-01f, 1.167811975e-01f, 1.032778695e-01f, 1.708044112e-02f, -9.216223657e-02f, -6.921253353e-02f, 1.864063442e-01f, 6.406278908e-02f, 1.396797299e-01f, 3.197557479e-02f, 1.505943388e-01f, -3.304851055e-02f, -4.942130670e-02f, 4.113083705e-02f, 1.536202729e-01f, -6.518874317e-02f, -1.618828773e-01f, 3.208116069e-02f, 6.889797002e-02f, 1.472136937e-02f, 6.026127934e-02f, 1.296725422e-01f, -9.482296556e-02f, -1.193217188e-02f, 8.685827255e-02f, -4.442062229e-03f, 1.440985650e-01f, -4.932024702e-02f, -1.016480103e-02f, 1.167983655e-02f, 4.148038477e-02f, -8.687982708e-02f, -6.337673217e-02f, -8.087602258e-02f, 1.811379641e-01f, -8.237612993e-02f, -1.571706533e-01f, -1.127575487e-01f, -1.194222122e-01f, -3.072381765e-02f, -8.088710159e-02f, 2.956834156e-03f, -7.185152918e-02f, -1.086775493e-02f, -1.534658223e-01f, 1.433651242e-02f, -1.369593292e-01f, 2.028166316e-02f, -1.533778459e-01f, -2.469090745e-02f, 8.389463276e-02f, -1.021370515e-01f, 5.048031360e-02f, 2.930653654e-02f, 4.263406619e-02f, 4.839702323e-02f, 2.369739115e-02f, -4.009698704e-02f, -2.806750312e-02f, -1.590177864e-01f, -1.132503450e-01f, 8.622329915e-04f, 8.465679735e-02f, -7.878963649e-02f, -6.699603796e-02f, -2.123036608e-02f, -1.356680393e-01f, 1.268079877e-01f, 2.841036394e-02f, -2.993421070e-02f, -1.307376772e-01f, 1.172911450e-01f, 1.306553781e-01f, 6.017601863e-02f, -3.887258470e-02f, 1.857943274e-02f, 3.899878636e-02f, -1.171164438e-01f, 1.847634558e-03f, 2.429043502e-02f, 7.262210548e-02f, 7.774320990e-02f, -1.156311184e-01f, -1.740526408e-01f, -6.393666565e-02f, 1.024753302e-01f, -1.672123671e-01f, 1.649826169e-01f, 8.190461993e-02f, -8.904444426e-02f, 1.251548529e-01f, -6.586924661e-03f, 1.430037916e-01f, -1.080857739e-01f, 1.425621510e-01f, 1.772213131e-01f, -6.340179592e-02f, 6.164983660e-02f, 2.196002752e-02f, 1.515845954e-01f, -1.741808802e-01f, -1.542693079e-01f, -2.299937792e-02f, 9.283459932e-02f, 1.439076513e-01f, -6.451546401e-02f, 3.761330247e-02f, -2.602351829e-02f, 1.301838644e-02f, -7.054585218e-02f, 5.427118763e-02f, 5.660395138e-03f, 1.167819649e-01f, 3.785879910e-02f, 6.029079854e-02f, 2.043309808e-02f, 3.616298735e-02f, 2.907358296e-02f, 1.853460632e-02f, -3.138073161e-02f, 8.340729773e-02f, 5.102057010e-02f, -1.651194841e-01f, 2.823087759e-02f, 1.416210830e-01f, -1.089771017e-01f, -6.720970571e-02f, 9.386480600e-02f, 1.456621438e-01f, -1.670098752e-01f, -1.033018455e-01f, 1.598150134e-01f, -1.659973152e-02f, 1.206120253e-01f, 2.449578792e-02f, 4.487443343e-02f, -7.297359407e-03f, 8.156061918e-02f, -1.974704675e-02f, -1.333308816e-01f, 1.714986865e-03f, -1.083339304e-01f, 1.379641742e-01f, -1.341925859e-01f, -9.816925228e-02f, 2.160201408e-02f, -3.159581125e-02f, -6.064393092e-03f, 1.242043730e-02f, -5.521429330e-02f, 9.918607771e-02f, 5.812997743e-02f, 3.136758925e-03f, -6.776746362e-02f, 9.032602608e-02f, 1.322723031e-01f, -9.178097243e-04f, 2.903362550e-02f, 1.193272769e-01f, -8.136736602e-02f, -1.838157028e-01f, 6.672794372e-02f, -1.389596909e-01f, -2.963838726e-02f, 1.387412399e-01f, 4.802526534e-02f, 3.137347475e-02f, 5.824815109e-02f, -1.495336592e-01f, -1.735378057e-01f, 5.018186569e-02f, 9.542741627e-02f, -1.112580895e-01f, 1.230954826e-01f, 1.305840313e-01f, 3.727838397e-03f, -1.429596990e-01f, 1.400466412e-01f, -5.417912453e-02f, -1.082258895e-01f, 8.523437381e-02f, -9.679529816e-02f, -3.944404051e-02f, 4.456866160e-02f, -5.895189941e-03f, -3.947141021e-02f, 1.033748537e-01f, 1.648876369e-01f, -3.502243385e-02f, -1.618123949e-01f, -5.164235458e-02f, 1.320628971e-01f, 1.591418982e-01f, -8.410916477e-02f, 1.515609920e-01f, 1.228232905e-01f, 5.765391979e-03f, 8.050663769e-02f, -1.206423938e-01f, -1.814118028e-01f, 6.990796328e-02f, -4.891517013e-02f, 1.520083547e-01f, 4.461296648e-02f, -5.124910176e-02f, 1.451780796e-01f, 1.226787083e-02f, -1.230008714e-02f, -8.394594188e-04f, -5.698295683e-02f, -4.638602491e-03f, 1.516586244e-01f, 8.342461288e-02f, -1.459307373e-01f, -8.331442624e-02f, -7.025786489e-02f, -1.822552532e-01f, -1.367861480e-01f, 8.561559767e-02f, 6.761364639e-02f, 5.891367793e-02f, -3.016420640e-02f, -6.453432608e-03f, -1.570494473e-01f, -1.736498997e-02f, -1.839627624e-01f, -1.794555783e-01f, 1.198877767e-02f, -1.036341786e-01f, 1.702619791e-01f, 1.002880409e-01f, 1.650768667e-01f, -9.054801613e-02f, 1.051211730e-01f, 1.688741297e-01f, -4.163169861e-02f, 1.603483222e-02f, -1.610131711e-01f, -6.868398190e-02f, -3.164210543e-02f, -1.684295833e-01f, 1.632055789e-01f, -1.374918222e-01f, -2.354527637e-02f, -2.471289225e-02f, -9.374099784e-03f, 1.166032627e-01f, -1.827794164e-01f, -8.286707103e-02f, -6.604182720e-02f, -4.797447845e-02f, 1.090627350e-02f, 5.288973451e-02f, -8.035835810e-03f, -4.005084559e-02f, -1.137593165e-01f, -4.976117238e-02f, 7.644942403e-02f, -5.552770570e-02f, -8.915939182e-02f, -1.662683189e-01f, -1.147260070e-01f, -6.105047464e-02f, -1.148929968e-01f, -1.187221110e-01f, 2.243071422e-02f, 4.301796481e-02f, 2.290060371e-02f, -1.250106096e-01f, -1.022000089e-01f, -1.552575231e-01f, 1.183539629e-01f, -1.221489981e-01f, 2.158292569e-02f, -9.952893853e-02f, -7.560495287e-02f, 7.052030414e-02f, 6.550727878e-03f, -8.970628493e-03f, -7.526728511e-02f, 8.002957702e-02f, -1.405316442e-01f, -6.150721014e-02f, 1.171523705e-02f, -3.345063701e-02f, -1.741326153e-01f, 6.805603206e-02f, -1.006652564e-01f, -1.569618583e-01f, -1.413204074e-01f, 1.633444428e-01f, 1.411001831e-01f, -2.213962190e-02f, 1.223870143e-01f, -2.976026386e-02f, 2.587131970e-02f, 9.683513641e-02f, 2.640623972e-02f, -7.241845015e-04f, -1.067340448e-01f, 1.507246941e-01f, -1.630368829e-01f, -1.117299795e-01f, -4.952777550e-02f, -7.695346326e-02f, 6.087077409e-02f, -6.735460460e-02f, -8.700387180e-02f, -1.643885076e-01f, 4.856872559e-02f, -7.677547634e-02f, 7.505244017e-02f, 1.386666745e-01f, 5.710442737e-02f, 6.658295542e-02f, 1.009694487e-01f, 1.235952452e-01f, 1.034906283e-01f, 1.565119624e-01f, -1.748009026e-01f, -1.626786292e-01f, -1.620336920e-01f, -1.621463895e-01f, 6.204157136e-03f, -1.529518701e-02f, 1.296578050e-01f, 1.215415820e-01f, 1.241297424e-01f, -1.658073962e-01f, -6.311007589e-02f, -3.169029206e-02f, 2.689263225e-02f, 1.300654113e-01f, 9.540078789e-02f, -6.481299549e-02f, -1.378566921e-01f, 3.373454791e-03f, -1.318395734e-01f, 1.564301103e-01f, -6.579825282e-02f, 1.274319738e-01f, 7.977872342e-02f, -4.161356762e-02f, 1.419805139e-01f, 9.995225817e-02f, 8.868821710e-02f, -4.727706313e-02f, -6.235379726e-02f, 1.021983847e-01f, 6.209314615e-02f, 7.487817109e-02f, 1.183761284e-01f, 1.550630629e-01f, 4.255844979e-04f, 8.098281920e-02f, 1.301632822e-01f, 1.919590868e-02f, -1.481631696e-01f, -1.220417470e-01f, 1.827318817e-01f, -1.513368487e-01f, 1.710062623e-01f, 1.903143972e-01f, 9.026640654e-02f, -1.636404544e-01f, 1.224813238e-01f, -8.223641664e-02f, 5.734680220e-02f, 5.234583840e-02f, -1.453077197e-01f, 1.276829690e-01f, -5.220097676e-02f, 1.862501800e-01f, -4.123635218e-02f, 1.904422976e-02f, -1.007242501e-01f, -1.060044207e-02f, -1.641579419e-01f, 1.967075840e-02f, 1.824917942e-01f, 1.160464138e-01f, 1.524263620e-01f, -5.931283534e-02f, 6.006720290e-02f, 3.509275243e-02f, -1.281870604e-01f, 1.514600068e-01f, -1.466831565e-01f, 1.145104021e-01f, 2.244259790e-02f, 1.235038936e-01f, 5.324472114e-02f, 3.577849641e-02f, 1.438589096e-01f, -1.204562336e-01f, -8.731141686e-03f, 1.178885996e-01f, 1.403489113e-01f, -6.020170823e-02f, 3.770976514e-02f, 7.126881182e-02f, -1.202020198e-01f, 9.967967123e-02f, 8.966201544e-02f, -4.635726288e-02f, 2.110911161e-02f, 3.569735214e-02f, 9.409845620e-02f, 1.222599745e-01f, 1.122096032e-01f, 3.154754173e-03f, -7.688552141e-02f, -3.012228291e-03f, -7.626270503e-02f, 3.240118921e-02f, 1.649203897e-01f, -1.761629581e-01f, -1.610200107e-01f, 1.137165874e-01f, 1.224534735e-01f, 1.458626390e-01f, -1.144947037e-01f, -1.695421487e-01f, -1.459785998e-01f, 2.137848735e-02f, 7.781723142e-02f, -7.568597794e-02f, 7.892913371e-02f, 1.511476785e-01f, -1.060081571e-01f, 2.893729694e-02f, -7.665204816e-03f, -1.568685174e-01f, -1.200909168e-01f, 1.013183743e-01f, -3.560335189e-02f, 2.338193916e-02f, 4.033019766e-02f, -1.416270435e-01f, 1.756170206e-02f, 1.287753731e-01f, -8.654026687e-02f, 3.682600334e-02f, -1.006843895e-01f, 4.087857157e-02f, 1.427314579e-01f, 1.610857435e-02f, -1.390396804e-01f, -1.519199759e-01f, 1.511506438e-01f, -1.362471431e-01f, 4.164002836e-02f, 1.579019576e-01f, -1.053260043e-01f, -1.436914653e-01f, -1.836663298e-02f, 1.499812305e-01f, -2.818826586e-02f, 1.537392437e-01f, 1.390190721e-01f, 1.761201322e-01f, -4.436273128e-03f, 7.250740379e-02f, -7.578496356e-03f, -7.608274370e-02f, 1.294572204e-01f, -1.410993561e-02f, 4.158205912e-02f, -3.255118802e-02f, -5.723182485e-02f, 1.305506378e-01f, -7.237579674e-02f, -1.161445007e-01f, -3.174657002e-02f, 1.176218539e-01f, 1.199207604e-01f, 2.177918889e-02f, -3.282370418e-02f, 1.013390273e-01f, 7.668963075e-02f, 1.454560608e-01f, -2.660591342e-02f, 2.038866095e-02f, -1.910065301e-02f, -1.770051382e-02f, -6.920196116e-02f, -7.055199146e-02f, 1.719634831e-01f, -2.098939195e-02f, 1.162821949e-01f, 1.181149110e-01f, 1.790934205e-01f, -3.738569468e-02f, -1.460600737e-02f, 3.424421325e-02f, 1.518935859e-01f, 6.742306054e-02f, 9.626159072e-02f, -1.564962268e-01f, -2.256375039e-03f, 1.329630613e-01f, -1.745902747e-01f, -2.778564952e-02f, -4.706335068e-02f, 5.108447373e-02f, 9.650155902e-02f, 7.929572463e-02f, 2.917051502e-02f, -6.285433471e-02f, 1.382622272e-01f, 8.256216347e-02f, 6.879452616e-02f, 6.539744139e-02f, 1.511025727e-01f, 1.646310240e-01f, 8.502367139e-02f, 7.655528933e-02f, -3.199366108e-02f, -2.138327993e-02f, -2.825779095e-02f, 4.288756172e-04f, -4.593977705e-02f, 9.488256276e-02f, -5.338831246e-02f, 7.247049361e-03f, 4.917302728e-02f, 4.248748347e-02f, -1.514445692e-01f, 2.791091800e-03f, 2.992662601e-02f, -5.425602943e-02f, -3.600395098e-02f, 6.794013083e-02f, 2.944374271e-02f, 2.580433525e-02f, 1.047109440e-01f, -6.450475007e-02f, -5.126192048e-02f, -4.500511661e-02f, 8.475433290e-02f, -1.837941110e-01f, -1.897112466e-02f, -2.998436615e-02f, -8.362256736e-02f, 5.164913461e-02f, 9.077781439e-02f, -6.362298876e-02f, 2.791941352e-02f, 1.355448067e-01f, -1.836740077e-01f, -7.762736082e-02f, -9.099899232e-02f, -1.706588715e-01f, -1.662415117e-01f, 9.455507249e-02f, 1.638564467e-01f, -7.526986301e-02f, 1.275765300e-01f, -1.111601666e-02f, 1.438747197e-01f, 4.318658262e-02f, -1.787419915e-01f, -1.452703327e-01f, 1.464803424e-02f, -5.577518418e-02f, -9.444651753e-02f, -1.408663988e-01f, 5.273924768e-02f, -1.036827490e-01f, 1.305042803e-01f, 5.401319638e-02f, -1.013204828e-01f, -1.842575967e-01f, -9.112170339e-02f, 1.503340155e-01f, -7.764031738e-02f, -1.580939442e-01f, -8.338028938e-02f, 1.240927279e-01f, -1.398480684e-01f, -1.610278338e-01f, -1.515216231e-01f, 1.050096303e-01f, -8.480909467e-02f, 1.659614444e-01f, 2.893972397e-02f, -9.512371570e-02f, 1.884285361e-02f, -1.003220901e-01f, -5.326752085e-03f, 6.344668567e-02f, -2.601165883e-02f, 1.083708256e-01f, 5.692975968e-02f, 8.864316344e-02f, -1.470054835e-01f, 1.285582781e-01f, 7.548239082e-02f, 1.080611199e-01f, -8.434483409e-02f, 1.424762309e-01f, 7.882864028e-02f, -1.763265729e-01f, 1.648195237e-01f, -1.325157732e-01f, 1.178602874e-01f, -1.720315516e-01f, 9.342940897e-02f, -1.565542072e-01f, -3.861287609e-02f, 4.885732755e-02f, -1.817958243e-02f, -1.418483853e-01f, 1.549729854e-01f, -1.070718840e-01f, 1.434584707e-01f, -1.581234783e-01f, 1.071969345e-01f, 1.509591788e-01f, 8.802051842e-02f, -1.607787907e-01f, -1.403164268e-01f, -2.625115775e-02f, 1.687296927e-01f, 3.328001499e-02f, -8.478927612e-02f, 1.217908487e-01f, -4.163205624e-02f, 6.737253070e-02f, 7.430208847e-03f, 1.101357043e-01f, 1.556543410e-01f, -7.509610802e-02f, -2.530285716e-02f, -7.539287955e-02f, 9.505476803e-02f, -5.981109291e-02f, -9.347696602e-02f, -3.533235565e-02f, -1.417499874e-02f, -1.429461539e-01f, -1.818923354e-01f, -5.093301833e-02f, 2.295159921e-02f, 8.519856632e-02f, -1.013620198e-01f, 6.756442785e-02f, -1.204699129e-01f, -1.426268965e-01f, -6.617516279e-02f, -3.344989195e-02f, 1.402950436e-01f, 4.375598580e-02f, 4.113880172e-02f, 1.319330372e-02f, 4.811811820e-02f, -1.610646695e-01f, 1.463154852e-01f, 1.076725777e-03f, 7.384613901e-02f, -5.639791116e-02f, -1.263640225e-01f, 3.736341372e-02f, 4.432028905e-02f, 1.227976605e-01f, -1.157126799e-01f, -7.899770141e-02f, 5.923675373e-02f, -5.510897934e-02f, 8.851257712e-02f, -4.494824260e-02f, -2.392783016e-02f, 8.228535950e-02f, -6.295897067e-02f, -9.022244811e-02f, 1.127453987e-02f, -6.949070096e-02f, 2.240470424e-02f, -1.389832795e-01f, -4.989678413e-02f, 1.257361174e-01f, 1.041004658e-01f, 1.608665735e-01f, 1.073380485e-01f, -1.648488343e-01f, -6.019515172e-02f, 2.367094532e-02f, -2.570321970e-02f, -7.724256068e-02f, 2.798490226e-02f, 1.142595932e-01f, -1.558376402e-01f, 3.030074202e-02f, 1.612212062e-01f, -1.724603213e-02f, -8.051186055e-02f, 5.381439999e-02f, 1.678008735e-01f, 4.012369737e-02f, 1.572233811e-02f, 1.817479916e-02f, -7.356610731e-04f, 1.346108019e-01f, -1.747946441e-01f, -1.415977329e-01f, -4.265283700e-03f, 7.203785330e-02f, 4.520498589e-02f, 6.166763976e-02f, 2.392568253e-02f, 7.681886852e-02f, -3.412668407e-02f, -9.081902355e-02f, 1.099127927e-03f, 1.332120746e-01f, -1.212771535e-01f, -1.175670698e-01f, -1.309757233e-01f, 7.138853520e-02f, -1.352297962e-01f, 9.349672496e-02f, -1.169014275e-01f, -1.425114125e-01f, 8.392556570e-03f, -1.370104700e-01f, -8.527164161e-02f, 1.450155675e-01f, -1.740746759e-02f, -8.745311201e-02f, 1.335105393e-02f, 1.323261857e-01f, 4.264635220e-02f, -6.530216336e-02f, 1.465712190e-01f, 1.074297875e-01f, -1.347976774e-01f, 1.366731673e-01f, -5.144438520e-02f, 5.270066857e-02f, 6.816423684e-02f, -1.336734295e-01f, 4.832134582e-03f, -5.006571487e-02f, -6.398890913e-02f, 1.337933689e-01f, 3.594723344e-02f, 1.545955986e-01f, 6.672608200e-03f, -2.886399440e-02f, 1.111813858e-01f, -1.556318700e-01f, -1.389563829e-01f, -1.709155142e-01f, 9.861972928e-02f, -1.126546040e-01f, 1.289490014e-01f, -9.880021214e-02f, -9.014841914e-02f, -9.727342427e-02f, 1.496514976e-01f, 3.881984949e-02f, -5.429456010e-02f, -4.375644773e-02f, -8.990912139e-02f, -4.790608585e-02f, 4.717257619e-02f, -1.736680120e-01f, -8.929034323e-02f, 2.970475890e-02f, 8.298621327e-02f, 3.164210543e-02f, 7.106751204e-02f, 1.273958534e-01f, 4.529210925e-02f, 1.724978387e-01f, -6.945999712e-02f, 1.487821043e-01f, 9.570643306e-02f, 4.296084493e-02f, 8.102475107e-02f, -1.211224422e-01f, -1.392235458e-01f, 6.022553518e-02f, 1.663139760e-01f, 1.557074636e-01f, 8.704051375e-02f, -3.419540077e-02f, 1.390711516e-01f, 1.255043447e-01f, 1.020898763e-02f, 1.581535041e-01f, -9.017657489e-02f, 1.216341481e-01f, -1.062564030e-01f, -1.763270050e-02f, -1.262766421e-01f, -1.162405536e-01f, -1.030949503e-01f, 1.475971937e-01f, 1.539650708e-01f, 8.321077377e-02f, -1.378936809e-03f, 1.835075580e-02f, -1.004542187e-01f, 1.447836906e-01f, 2.811576612e-02f, 1.069549620e-01f, 4.834014922e-02f, -1.571105272e-01f, -1.573657542e-01f, 1.095546782e-01f, -4.241758585e-02f, -3.161932155e-02f, -1.512235850e-01f, 2.397578768e-02f, 7.007616758e-02f, -2.944500186e-02f, 5.906819925e-02f, -1.564487070e-02f, 5.846838281e-02f, -1.195576936e-01f, 8.604138345e-02f, -1.537118107e-01f, -1.459085476e-02f, 9.011097252e-02f, 4.618193582e-02f, 8.596832305e-02f, -7.327619009e-03f, 1.058480293e-01f, -1.476649642e-01f, -7.843282074e-03f, -1.500764787e-01f, -5.720958486e-02f, 5.256156251e-02f, -6.459133327e-02f, -7.854822278e-02f, 1.653140783e-01f, 3.423095122e-02f, 5.764466524e-02f, -2.394878305e-02f, -1.597740203e-01f, 1.743516326e-01f, 7.551011443e-02f, 2.572875470e-02f, 7.826127857e-02f, -9.882481396e-02f, -6.145721674e-02f, 3.415765939e-03f, -1.024196371e-01f, 9.068954736e-02f, 4.110526666e-02f, 1.803827286e-01f, -5.244228616e-02f, 4.659189284e-02f, -1.413495243e-01f, 5.156259611e-02f, -1.343661696e-01f, -1.717481017e-01f, -3.313067602e-03f, -2.407769114e-02f, -1.750294417e-01f, 1.942742057e-02f, 9.263660759e-02f, 1.469972283e-01f, -1.592170745e-01f, 4.966897145e-02f, -1.505406052e-01f, 9.575064480e-02f, 7.637559623e-02f, -2.808946185e-03f, -5.120659620e-02f, 1.306657791e-01f, 7.180025429e-02f, 8.938242495e-02f, 1.003628746e-01f, 5.251210649e-03f, 1.682180613e-01f, 6.841406971e-02f, -2.928561065e-03f, -7.133177668e-02f, -2.225790359e-02f, -2.106373757e-02f, -1.453648210e-01f, -9.927414358e-02f, 9.502437711e-02f, 4.111744463e-02f, -1.099574789e-01f, -1.449317485e-02f, 4.339873046e-02f, 1.021105200e-01f, -1.752406359e-01f, -1.622852683e-01f, -1.286286563e-01f, -1.648529172e-01f, 1.531109959e-01f, -2.423831448e-02f, -1.785610616e-02f, 3.283291683e-02f, 5.717148632e-02f, 1.691640466e-01f, -9.489315748e-02f, -2.792797610e-02f, 8.207365125e-02f, -8.942440897e-02f, 1.431634426e-01f, 1.100445539e-01f, -1.092327684e-01f, -9.107076377e-02f, -5.120166391e-02f, 1.376506537e-01f, 1.535199136e-01f, -9.296933562e-02f, -1.186736599e-01f, 1.506817490e-01f, -1.528857648e-01f, -1.585079432e-01f, -1.223576814e-01f, -1.145673022e-01f, -1.798740216e-02f, -6.638340652e-02f, 7.982229441e-02f, 4.486253113e-02f, -1.798319370e-01f, -3.494109586e-02f, -4.891461134e-02f, -1.470348388e-01f, -3.700510785e-02f, 1.316793412e-01f, 8.455947787e-02f, -9.223186225e-02f, 1.146468148e-01f, 9.016237408e-02f, 1.659943014e-01f, -1.598046273e-01f, -8.605011553e-02f, 8.687756211e-02f, -1.758676022e-01f, -4.733562935e-03f, -6.372085307e-03f, 1.354406402e-02f, -1.187716722e-01f, 1.152603626e-01f, -1.147976727e-03f, -1.155316383e-01f, -5.570951104e-02f, -1.325608492e-01f, 2.704041637e-02f, 3.773987293e-03f, 1.087186486e-01f, 1.663852185e-01f, -2.987906709e-02f, 1.005649492e-01f, -1.082570180e-01f, -7.128689438e-02f, 9.298742563e-02f, 1.072176471e-01f, -7.255047560e-02f, -3.771963343e-02f, -6.569327414e-02f, -1.349462122e-01f, -2.510617860e-02f, 1.647990346e-01f, -9.885258973e-02f, -1.121554151e-02f, -3.630591556e-02f, 8.009466529e-02f, 1.255317032e-01f, -1.111513376e-01f, 1.722786948e-02f, -1.759334505e-01f, 8.887675405e-02f, -6.778930128e-02f, -4.829259589e-02f, -9.739361703e-02f, -1.119421124e-01f, -1.504390538e-01f, 1.268948317e-01f, 7.069935650e-02f, 1.388635039e-01f, 4.923514649e-02f, -3.013286367e-02f, -6.265106052e-02f, 6.352937967e-02f, -3.683980554e-03f, -1.506896466e-01f, -1.573316455e-01f, -1.247489452e-02f, 2.154911496e-02f, 1.650150865e-01f, 1.377919316e-01f, -9.437312931e-02f, -1.373913735e-01f, -7.545515895e-02f, 1.592518836e-01f, -1.442454010e-01f, -2.424975485e-02f, -8.035623282e-02f, -1.344810724e-01f, -2.258526720e-02f, -1.300416738e-01f, -9.474048764e-02f, 6.015999615e-02f, 5.025914684e-02f, 3.747679666e-02f, -6.448949873e-02f, 1.254950464e-01f, -1.218205467e-01f, -7.888583839e-02f, -1.715872288e-01f, -1.090342775e-01f, 9.979486465e-02f, 8.681982011e-02f, 2.206109464e-02f, 7.327397168e-02f, -1.346787065e-01f, 5.471223220e-02f, 4.074079171e-02f, 1.156697422e-01f, 2.802050672e-02f, 1.325349361e-01f, 1.393021345e-01f, 1.366403997e-01f, 1.566371024e-01f, 7.899749279e-02f, 8.270747960e-03f, 9.686199576e-02f, -5.333578587e-02f, 7.632969320e-02f, 5.864610523e-02f, 1.472083181e-01f, 4.145727959e-03f, 1.062155366e-01f, -1.009698808e-01f, 1.583191603e-01f, 6.437169760e-02f, 7.064115256e-02f, 7.476811111e-02f, -1.582035869e-01f, -1.012681574e-01f, 1.057512239e-01f, 8.414810896e-02f, -8.527593315e-02f, 1.587930173e-01f, 8.449783549e-03f, 5.329208821e-02f, -7.493692636e-02f, -1.544676721e-01f, -1.611096561e-01f, -2.321479842e-02f, 4.428255931e-02f, 3.331440315e-02f, -5.944214389e-02f, 7.539044321e-02f, 8.695043623e-02f, 1.446330100e-01f, 2.386639267e-02f, -3.217064962e-02f, 9.540179372e-02f, -9.609264880e-02f, 6.903073750e-03f, 1.267103255e-01f, -1.380236167e-02f, 1.191586815e-02f, -1.533240974e-01f, -6.157794222e-02f, 1.384595782e-01f, 7.048819959e-02f, 1.524821669e-01f, -7.002057135e-02f, -6.797752529e-02f, 6.921000779e-02f, -2.660051920e-02f, -1.367631704e-01f, -1.519054472e-01f, 6.089070067e-02f, 7.819154859e-02f, -1.367033273e-01f, 1.204427332e-01f, 1.499213129e-01f, 1.503500342e-01f, -1.541007161e-01f, 1.480211914e-01f, 3.849525005e-02f, 5.534200929e-03f, -6.123635173e-02f, 1.491865516e-02f, 1.038254276e-01f, 7.591839880e-02f, -1.780608594e-01f, -2.124583907e-02f, 1.360130757e-01f, 1.343922615e-01f, -1.102369428e-01f, 1.349732094e-02f, 1.279591173e-01f, -1.311803162e-01f, -4.484809563e-02f, 2.561941929e-02f, 6.531117857e-02f, 1.488085389e-01f, -9.779534489e-02f, -7.495130599e-02f, -2.214176767e-02f, 1.690849215e-01f, 2.089115418e-02f, -1.772983745e-02f, 9.135720879e-02f, -6.728771329e-02f, 1.701198816e-01f, -1.492460072e-01f, 6.688612700e-02f, 1.567133963e-01f, -8.120179176e-02f, 1.412403435e-01f, 9.184876108e-04f, 8.493158966e-02f, -1.410946697e-01f, 1.317100525e-01f, 7.404983789e-02f, 1.186673343e-01f, 9.724970162e-02f, -8.636832982e-02f, 8.013150096e-02f, -1.125362068e-01f, 1.454842240e-01f, 9.050429612e-02f, -1.780548878e-02f, 1.661613025e-02f, 1.534193754e-01f, -2.416024916e-02f, 1.024524644e-01f, 2.843469009e-02f, -6.913874298e-02f, 1.403109282e-01f, 9.522473067e-02f, -1.550953239e-01f, -4.411064833e-02f, 3.893896192e-02f, 1.637284458e-01f, -9.943310916e-02f, 1.019867137e-01f, 3.267660737e-02f, -1.531029791e-01f, -2.795822918e-02f, -1.255844086e-01f, 2.944443841e-03f, -1.809828728e-01f, 5.743485689e-02f, -1.673117466e-02f, -1.584714353e-01f, -1.187892780e-01f, -1.534078270e-01f, -2.463782392e-02f, 1.504326910e-01f, -9.536946565e-02f, 5.147504807e-02f, -7.093708217e-02f, -1.404100060e-01f, -6.038830429e-02f, -1.795257926e-01f, -1.349242479e-01f, -3.335531801e-02f, 1.588746756e-01f, 6.652799249e-02f, -1.577105373e-01f, -9.604705870e-02f, -1.740910560e-01f, -1.511892024e-02f, 2.730265446e-02f, 1.290489733e-01f, 1.725289971e-01f, -7.919005002e-04f, -2.442246117e-02f, 1.207559854e-01f, 8.869406581e-02f, 1.063667610e-01f, -1.090848148e-01f, 3.354529664e-02f, 1.452971250e-01f, 6.515387446e-02f, 1.034162119e-01f, 3.322098777e-02f, -1.152931228e-01f, -1.454490274e-01f, -1.087810695e-01f, -1.649234593e-01f, -7.040895522e-02f, -3.262265399e-02f, 7.533604652e-02f, -1.574372947e-01f, 1.753441989e-01f, -3.192988038e-02f, 1.178795621e-01f, -1.502147913e-01f, 1.203047931e-01f, 5.737370998e-02f, -4.906218499e-02f, 1.725541800e-01f, 8.368133008e-02f, 5.753853172e-02f, 1.782922000e-01f, 2.904197015e-02f, 1.679715216e-01f, -1.190746427e-01f, 1.051340178e-01f, -9.912893176e-02f, 5.638957396e-02f, 1.110856086e-01f, 1.164842248e-01f, 1.363327056e-01f, 4.866040871e-02f, 2.426789142e-02f, -3.146224096e-02f, -1.629213989e-01f, 3.641129285e-02f, -8.779577911e-02f, -6.824471802e-02f, 1.477802843e-01f, 3.093733452e-02f, -3.641878441e-02f, -1.592580974e-02f, -3.523021936e-02f, -1.660394371e-01f, -7.069924474e-02f, -1.370063126e-01f, 6.768435240e-03f, -1.904897392e-02f, 9.311988950e-03f, 5.843612552e-02f, -1.146852970e-03f, 6.324340403e-02f, -1.294350922e-01f, -1.579624712e-01f, -1.782418340e-01f, 1.634371579e-01f, 3.043889999e-02f, 7.246980071e-02f, -1.720180362e-01f, -1.513564140e-01f, -6.582530588e-02f, 2.723911405e-02f, 1.751122773e-01f, -1.375816166e-01f, -6.438627839e-03f, -1.207645088e-01f, 1.548391283e-01f, 2.132193744e-02f, 9.574308991e-02f, 8.903759718e-02f, 1.260333061e-01f, -1.770100445e-01f, 2.330808342e-02f, -1.695795506e-01f, 6.030611694e-02f, -7.033486664e-02f, -7.601266354e-02f, 8.109927177e-02f, 1.036533117e-01f, -4.967127740e-02f, 7.850387692e-02f, -1.407167614e-01f, 4.992091656e-02f, -1.697057933e-01f, -1.835918427e-02f, -4.476904869e-04f, -6.911658496e-02f, 6.121994555e-02f, -1.685242206e-01f, 1.456849277e-01f, 5.065539479e-02f, 6.224593520e-02f, 5.327595770e-02f, -2.682097256e-02f, 8.551409841e-02f, 1.383717954e-01f, 2.282887697e-02f, -1.728428900e-01f, -1.237682030e-01f, 1.190974414e-01f, -1.301724613e-01f, 1.619912982e-01f, 3.558045253e-02f, 7.522539794e-02f, -1.602268517e-01f, 5.579367280e-02f, -4.805253819e-02f, -1.633540839e-01f, -1.009233966e-01f, -1.806218624e-01f, 1.060700193e-01f, -1.340633333e-01f, 9.834264219e-02f, -1.289094090e-01f, -1.803204715e-01f, -2.416339703e-02f, 5.036233366e-02f, -9.057525545e-02f, -6.664474308e-02f, -1.282136738e-01f, -1.158986986e-01f, -1.726475507e-01f, 6.719890982e-02f, -5.469623581e-02f, -9.978329763e-03f, -4.441751167e-02f, 4.818303883e-02f, -1.758682355e-02f, 1.607775390e-01f, -1.614525467e-01f, 7.299543172e-02f, -1.270041466e-01f, 8.179868013e-02f, -1.184448302e-01f, 1.090256497e-01f, -6.501718890e-04f, 2.884295955e-02f, -4.396890476e-02f, -1.198376268e-01f, -7.492072880e-02f, 1.748568714e-01f, 1.011574361e-02f, -1.644674689e-01f, 1.118802354e-01f, 5.827723071e-02f, 1.189664006e-01f, -1.103278473e-01f, -1.666053683e-01f, 3.001788445e-02f, -1.465243567e-02f, 2.980732918e-02f, 5.478142574e-02f, 1.571334898e-01f, 3.099064715e-02f, 2.369804541e-03f, 4.526975751e-02f, 2.258654311e-02f, -1.760665327e-01f, -1.074657366e-01f, -1.723075807e-01f, 2.295274101e-02f, 3.198775277e-02f, 9.260241687e-02f, 1.354301255e-02f, 3.152846545e-02f, -1.789676547e-01f, -9.428315610e-02f, 1.452421397e-01f, -1.097051054e-01f, 1.138441563e-01f, -1.668578386e-01f, 4.048406705e-02f, 8.019708842e-02f, -9.658579715e-03f, 4.339933395e-02f, -5.581710115e-02f, 8.438790590e-02f, 1.587901562e-01f, -1.375091672e-01f, -1.472852528e-01f, -1.491702646e-01f, -9.263040125e-02f, 3.488928825e-02f, -3.345704824e-02f, 1.444519013e-01f, 9.448889643e-03f, -1.715423614e-01f, 1.479429603e-01f, 7.189678028e-03f, 3.119141608e-02f, -1.544194371e-01f, -5.265561119e-02f, -1.403818280e-01f, 3.243884444e-02f, -1.813048720e-01f, 1.223202348e-01f, -1.349637210e-01f, -1.117372364e-01f, -1.486072838e-01f, -7.836674899e-02f, 1.379937530e-01f, -1.176663488e-01f, -1.202765033e-01f, 5.308113247e-02f, -5.990056321e-02f, 1.285231709e-01f, -1.316144480e-03f, 1.570298821e-01f, -1.584698856e-01f, 1.039802581e-01f, -1.667466909e-01f, 1.628302485e-01f, 1.050858051e-01f, 1.314022839e-01f, -1.284443587e-01f, -8.874968439e-02f, -1.091571227e-01f, 1.705191433e-01f, -1.257680636e-02f, -1.319007725e-01f, -1.340772659e-01f, -3.748535365e-02f, 1.251325160e-01f, 5.578796566e-02f, -6.829150021e-02f, 3.166101128e-02f, 1.432942450e-01f, -3.112763166e-03f, -1.293561887e-03f, 1.430587918e-01f, 1.136842370e-01f, 1.001451537e-01f, 1.724727154e-01f, -4.732133448e-02f, -4.258269444e-02f, 5.551069975e-03f, -4.277071729e-02f, -8.825249970e-02f, 1.376890019e-02f, -5.981059000e-02f, -3.623338789e-02f, 1.389568448e-01f, -7.811497897e-02f, 2.112508751e-02f, -2.251326293e-02f, -3.355981037e-02f, 1.001830176e-01f, 1.296861619e-01f, 1.271689385e-01f, 5.061141402e-02f, -4.500015639e-03f, -1.417626292e-01f, -5.011676624e-02f, -1.480052173e-01f, 1.536121964e-01f, -3.919690475e-02f, 8.769721538e-02f, -1.032930836e-01f, 1.279556006e-01f, 1.638535559e-01f, -5.791860446e-02f, 5.982130766e-02f, -1.770846248e-01f, 9.254641086e-02f, 5.868339166e-02f, 5.927053094e-02f, 1.117473394e-01f, -1.567461640e-01f, 1.320327967e-01f, -1.529058665e-01f, -6.692644954e-02f, -2.820332721e-02f, -1.276077777e-01f, 4.593912512e-02f, -1.709143668e-01f, 1.058711205e-02f, -3.660018370e-02f, -1.385886818e-01f, -9.582796693e-02f, 1.073418334e-01f, -2.160909027e-02f, 1.386170983e-01f, -4.741453379e-02f, 1.188919097e-01f, -6.448018551e-02f, 8.736102283e-02f, 1.000332609e-01f, 1.237170398e-01f, -4.780688137e-02f, 4.554820061e-02f, 1.065354347e-01f, 1.142189801e-01f, -7.926248014e-02f, 1.324910372e-01f, -1.654155552e-01f, -1.432685703e-01f, -2.361865342e-02f, -7.230728865e-02f, 4.111378640e-02f, -7.447957247e-02f, 1.197620854e-01f, -7.549036294e-02f, 2.909186110e-02f, 6.593839824e-02f, -1.416119840e-02f, 3.335941583e-02f, 8.602676541e-02f, -1.205054671e-01f, -4.494659603e-02f, -9.249893628e-05f, -2.828839701e-03f, 1.599226296e-01f, -1.389286518e-01f, -1.455878913e-01f, 7.243824657e-03f, 5.314404890e-02f, -3.353159875e-02f, -4.020885751e-02f, -6.326331943e-02f, 3.795531392e-02f, 1.613093913e-01f, 1.189823002e-01f, 5.779634416e-02f, 1.386145502e-01f, -1.922830380e-02f, -6.077193469e-02f, -2.601540834e-02f, 1.216619834e-01f, -1.593690664e-01f, 1.481797844e-01f, -1.131794676e-01f, 7.451331615e-02f, -1.140173376e-01f, 1.082824245e-01f, 1.570996791e-01f, -1.322549134e-01f, 8.215709776e-02f, -3.618974239e-02f, 2.427363582e-02f, -2.339574508e-02f, -1.348974556e-01f, -4.400860146e-02f, -1.790696084e-01f, 5.579764768e-02f, 1.547655761e-01f, -9.510070086e-03f, 7.331234217e-02f, 4.400372505e-02f, -3.886264190e-02f, 1.557795703e-01f, -5.862404406e-02f, 4.454173893e-02f, 1.469116956e-01f, 8.637226373e-02f, -8.364802599e-02f, -1.779351234e-01f, 1.864223555e-02f, 5.455405638e-02f, -1.762722731e-01f, 2.078925818e-02f, 1.340130419e-01f, -2.569999779e-04f, 9.960595518e-02f, -8.048751950e-02f, -9.414684772e-02f, 1.472851038e-01f, 2.939381823e-02f, 1.058385596e-01f, 1.447758377e-01f, -7.292255759e-02f, -1.011128798e-01f, 7.325401157e-02f, -6.073352695e-02f, 1.108876765e-01f, -3.918239847e-02f, -1.247341037e-01f, 9.602294117e-02f, -7.004354149e-02f, 1.337930113e-01f, 3.061301075e-02f, 1.105031222e-01f, 8.552356809e-02f, -2.237379551e-02f, -6.754861027e-02f, 2.398410067e-02f, -5.165677983e-03f, -1.073529245e-03f, -3.737636656e-02f, -1.095080823e-01f, -1.521520466e-01f, -1.763023436e-01f, 1.103121415e-01f, 1.638540328e-01f, 2.124252170e-02f, -1.379875392e-01f, -7.438440621e-02f, 3.107464314e-02f, -1.319340803e-02f, 4.396915436e-02f, 1.367244571e-01f, -3.544745967e-02f, -6.951738149e-02f, 1.144582927e-01f, -1.086057425e-01f, -6.382407993e-02f, 4.781048000e-02f, -6.182911247e-02f, -7.896043360e-02f, -1.425686926e-01f, -1.657643765e-01f, 1.470866501e-01f, -1.587095112e-01f, 1.548058391e-01f, 5.847896636e-02f, 4.367169738e-02f, 1.084954739e-01f, -2.882228792e-02f, 1.160214543e-01f, 8.263537288e-02f, 1.104968786e-02f, -6.271355599e-02f, -5.770497769e-02f, -1.545818746e-01f, -1.769971848e-02f, -1.122002304e-02f, 8.872032166e-02f, 1.070740521e-01f, 2.028408647e-02f, -5.195736885e-03f, -7.968170196e-02f, 1.659893095e-01f, -1.088022217e-01f, -1.351569891e-01f, -8.102460951e-02f, 3.203170002e-02f, -2.420696616e-02f, 9.683674574e-02f, -1.502102762e-01f, 4.410490394e-03f, 3.897480667e-02f, -1.660599709e-01f, 1.107640564e-01f, -8.630774170e-02f, -1.294495761e-01f, 1.021187305e-01f, -7.120852917e-02f, 1.729334295e-01f, -2.936679125e-02f, -1.655332744e-02f, -1.565221101e-01f, -9.078463167e-02f, -1.132053882e-01f, -3.679959476e-02f, -1.189958453e-01f, 1.785456836e-01f, -1.569492817e-01f, -1.062828153e-01f, -9.009045362e-02f, -6.543877721e-02f, -1.758107543e-01f, 1.118552387e-01f, -7.013727725e-02f, -6.551113725e-02f, 1.645788550e-02f, -1.323418915e-01f, -1.170116141e-01f, -1.227194369e-01f, 1.572867930e-01f, 3.492103517e-02f, -9.147821367e-02f, -6.839931011e-04f, 5.929768085e-04f, -3.431071341e-02f, -1.682608277e-01f, -5.197100341e-02f, 1.153001487e-01f, 5.468824506e-02f, -1.093270928e-01f, -2.259209752e-02f, 1.624130905e-01f, -1.367281377e-02f, -5.684579164e-02f, -4.850620031e-02f, -6.719981879e-02f, -7.082387805e-03f, 3.314848244e-02f, -1.142450795e-01f, -7.018263638e-02f, 5.703039467e-02f, 1.268168688e-01f, -1.061719880e-01f, 6.323434412e-02f, -8.839696646e-02f, 2.423162758e-02f, 2.636212111e-02f, 5.729688704e-02f, 3.264193237e-02f, 1.143871248e-01f, 5.571180582e-02f, 1.113823652e-01f, -2.425999939e-02f, -1.743173599e-01f, -1.061838716e-01f, 2.971532941e-02f, -5.151689053e-03f, 5.322846770e-02f, -1.733601838e-01f, 1.008566022e-01f, -1.799961925e-02f, -7.590562105e-03f, 2.492231131e-02f, -1.117578298e-01f, 6.126573682e-02f, -1.721599698e-02f, -1.459314376e-01f, -1.362157911e-01f, -1.250570118e-01f, -1.157375351e-01f, 5.320981145e-02f, 1.479327083e-01f, 1.715581119e-01f, 2.085039392e-02f, -1.640769541e-01f, -9.909250587e-02f, -7.737380266e-02f, 1.058555469e-01f, 1.771611720e-01f, -1.298173517e-01f, 1.262479872e-01f, -2.826377936e-02f, -7.884814590e-02f, 1.556165963e-01f, 1.251828223e-01f, -3.550317511e-02f, 4.911837727e-02f, -9.904181957e-02f, -1.316487193e-01f, 1.239354834e-01f, -1.627002805e-01f, -5.335277319e-02f, 1.776745319e-01f, -9.207831323e-02f, -1.047561467e-01f, 8.939778060e-02f, 7.181608118e-03f, -1.703781039e-01f, 1.422972977e-01f, 9.727172554e-02f, 1.637523249e-02f, 1.449681371e-01f, -1.715095043e-01f, 2.702456713e-02f, -9.860778227e-03f, 1.554116514e-02f, 1.414878517e-01f, 4.990225285e-02f, 1.364926714e-02f, -8.675896376e-02f, -1.052532643e-01f, -1.395593137e-01f, -1.693829000e-01f, 4.860908724e-03f, 1.341246516e-01f, -1.746143028e-02f, 5.636586249e-02f, 1.589762419e-02f, 1.200798377e-01f, 4.961386696e-02f, -1.727052778e-01f, -8.138263226e-02f, -1.195327491e-01f, 1.922570169e-02f, -1.570746899e-01f, 3.158510104e-02f, 1.380656213e-01f, 2.898565494e-02f, 1.765511632e-01f, -1.407305244e-02f, 4.574848339e-02f, 4.995292798e-02f, 5.075163394e-02f, 4.044557363e-02f, -1.548372507e-01f, -9.597035497e-02f, 9.305543453e-02f, -1.011182144e-01f, 1.618335247e-01f, -1.417310685e-01f, -6.615319103e-02f, 1.637991965e-01f, -4.811880738e-02f, -1.533481479e-01f, -3.975518420e-02f, 1.334437430e-01f, -1.363426149e-01f, -1.061744615e-02f, 1.839240640e-02f, 5.090001598e-02f, -2.163654752e-02f, -3.598064557e-02f, 1.047470346e-01f, 6.240698043e-03f, 1.260587871e-01f, 8.878464997e-02f, 5.287159234e-02f, -1.707390845e-01f, -1.128866524e-01f, 1.187880188e-01f, -1.698244065e-01f, 1.654783934e-01f, -1.010164097e-01f, 9.598638862e-02f, -8.004377037e-02f, 8.042008430e-02f, 1.088283285e-01f, 5.182338506e-02f, 1.623534709e-01f, -1.261266768e-01f, 1.516588926e-01f, -1.525500566e-01f, -1.474777162e-01f, 6.487770379e-02f, 3.967101127e-02f, 6.574393064e-02f, 1.410047561e-01f, -3.033240139e-02f, 1.714920402e-01f, -8.333259076e-02f, 5.947111920e-02f, -1.336992532e-01f, 6.393104047e-02f, -1.224022359e-01f, -2.097485773e-02f, 1.619135439e-01f, 1.036938056e-01f, 1.420356631e-01f, 7.507792860e-02f, 1.008498520e-01f, 2.881981805e-02f, -4.195885733e-02f, -3.457995504e-02f, 3.893738613e-02f, 1.676133126e-01f, -5.637041852e-02f, 1.013981625e-01f, -1.013646573e-01f, -1.162161864e-02f, 5.577960983e-02f, -2.273781225e-02f, -2.545306832e-02f, -5.499238148e-02f, 4.683929309e-02f, 8.539360948e-03f, 1.717355475e-02f, -1.265798137e-02f, 1.373156607e-01f, -1.261728853e-01f, -7.373064756e-02f, -1.325394213e-01f, -1.828220487e-01f, 6.143798679e-02f, -5.979403481e-02f, 1.105172932e-01f, 1.379872113e-01f, 3.527494892e-02f, 1.799455099e-02f, -1.506803036e-01f, -4.287724942e-02f, 8.052200824e-02f, 1.488327086e-01f, -1.785365045e-01f, -9.627948515e-03f, 1.129528731e-01f, -1.592699587e-01f, -9.678523242e-02f, 1.307266504e-01f, -4.328756407e-02f, 2.182552218e-02f, 1.088420451e-01f, -8.620812744e-02f, 1.264771223e-01f, -8.433526754e-02f, -1.043796614e-01f, -1.791461110e-01f, 1.371772438e-01f, -1.274789423e-01f, -1.546928734e-01f, 7.633264363e-02f, -1.500176340e-01f, 1.065700408e-02f, 5.777645484e-02f, 8.525963873e-02f, -8.919322491e-02f, -1.800798178e-01f, 1.231449544e-01f, 2.049023460e-04f, 1.385678500e-01f, -1.026736721e-01f, -5.863493308e-02f, 4.990582913e-02f, 1.464691162e-01f, 1.294520795e-01f, -1.151110679e-01f, 1.205640510e-01f, -1.315645427e-01f, 1.711052097e-02f, 1.596420258e-01f, 5.572891608e-02f, -1.010091305e-01f, 1.798204780e-01f, -4.994151741e-02f, 1.413676739e-01f, 1.740064770e-01f, -1.599601507e-01f, 1.569619775e-01f, 1.640749723e-01f, 3.135921806e-02f, -8.588448912e-02f, -1.254838407e-01f, 1.207818314e-01f, -1.054227054e-01f, 1.319559366e-01f, 1.221107766e-01f, 7.224652171e-02f, -8.763972670e-02f, -7.118105888e-02f, 3.263727948e-02f, -5.715074018e-02f, -1.909838244e-02f, -8.826180547e-02f, 2.174217626e-02f, 1.487096250e-01f, 1.537524015e-01f, 1.198791638e-01f, -3.551349416e-02f, 2.252520993e-02f, 1.493826974e-02f, -1.204004958e-01f, -1.162041500e-01f, 7.703061402e-02f, 1.474147886e-01f, 2.143327519e-02f, -7.742883265e-02f, -1.350618005e-01f, 1.790748090e-01f, 7.405009866e-02f, 2.891896293e-02f, 4.511145130e-02f, 